{"learner":{"attributes":{},"feature_names":["mutect2_has_data","mutect2_pass","varscan_qual","varscan_af","varscan_dp","varscan_ad_ref","varscan_ad_alt","varscan_spv","varscan_ssc","varscan_gpv","varscan_has_data","varscan_pass","freebayes_has_data","freebayes_pass","vardict_qual","vardict_af","vardict_dp","vardict_ad_ref","vardict_ad_alt","vardict_mq","vardict_nm","vardict_format_qual","vardict_sbf","vardict_oddratio","vardict_hiaf","vardict_pmean","vardict_sn","vardict_adjaf","vardict_sor","vardict_ssf","vardict_msi","vardict_msilen","vardict_has_data","vardict_pass","freebayes_qual","freebayes_af","freebayes_dp","freebayes_ad_ref","freebayes_ad_alt","freebayes_mqm","freebayes_mqmr","freebayes_sap","freebayes_srp","freebayes_epp","freebayes_eppr","freebayes_rpp","freebayes_rppr","freebayes_ab","freebayes_odds","mutect2_qual","mutect2_af","mutect2_dp","mutect2_ad_ref","mutect2_ad_alt","mutect2_fs","mutect2_mq","mutect2_mqranksum","mutect2_readposranksum","mutect2_tlod","mutect2_nlod","mutect2_qd","mutect2_clippingranksum","mutect2_hrun","mutect2_gc","n_callers_pass","n_callers_data","af_mean","af_std","af_max","af_min","af_range","af_n_reported","qual_mean","qual_max","qual_min","dp_mean","dp_max","ad_alt_mean","ad_alt_max","caller_pattern","af_max_min_ratio","af_pairwise_mad","mutect2_af_dev","varscan_af_dev","freebayes_af_dev","vardict_af_dev","mutect2_filt_t_lod_fstar","mutect2_filt_alt_allele_in_normal","mutect2_filt_clustered_events","mutect2_filt_germline_risk","mutect2_filt_panel_of_normals","mutect2_filt_strand_artifact","mutect2_filt_homologous_mapping_event","mutect2_filt_str_contraction","mutect2_filt_MinAF","varscan_filt_REJECT","varscan_filt_SpvFreq","varscan_filt_indelError","varscan_filt_str10","freebayes_filt_REJECT","freebayes_filt_FBQualDepth","vardict_filt_REJECT","vardict_filt_f0.1","vardict_filt_p8","vardict_filt_SN1.5","vardict_filt_Bias","vardict_filt_Q0","vardict_filt_d5","vardict_filt_NM4.25","vardict_filt_LowAlleleDepth","vardict_filt_q22.5","vardict_filt_v3","vardict_filt_pSTD","vardict_filt_MAF0.05","vardict_filt_LowFreqQuality","vardict_filt_P0.01Likely","vardict_filt_DIFF0.2","vardict_filt_MSI12","vardict_filt_InGap","vardict_filt_Cluster0bp","mutect2_dp_rank","mutect2_ad_alt_rank","mutect2_ad_ref_rank","mutect2_qual_rank","mutect2_af_rank","varscan_dp_rank","varscan_ad_alt_rank","varscan_ad_ref_rank","varscan_qual_rank","varscan_af_rank","freebayes_dp_rank","freebayes_ad_alt_rank","freebayes_ad_ref_rank","freebayes_qual_rank","freebayes_af_rank","vardict_dp_rank","vardict_ad_alt_rank","vardict_ad_ref_rank","vardict_qual_rank","vardict_af_rank","dp_mean_rank","dp_max_rank","ad_alt_mean_rank","ad_alt_max_rank","qual_mean_rank","qual_max_rank","af_mean_rank"],"feature_types":["int","int","float","float","float","float","float","float","float","float","int","int","int","int","float","float","float","float","float","float","float","float","float","float","float","float","float","float","float","float","float","float","int","int","float","float","float","float","float","float","float","float","float","float","float","float","float","float","float","float","float","float","float","float","float","float","float","float","float","float","float","float","float","float","int","int","float","float","float","float","float","int","float","float","float","float","float","float","float","int","float","float","float","float","float","float","int","int","int","int","int","int","int","int","int","int","int","int","int","int","int","int","int","int","int","int","int","int","int","int","int","int","int","int","int","int","int","int","int","int","float","float","float","float","float","float","float","float","float","float","float","float","float","float","float","float","float","float","float","float","float","float","float","float","float","float","float"],"gradient_booster":{"model":{"cats":{"enc":[],"feature_segments":[],"sorted_idx":[]},"gbtree_model_param":{"num_parallel_tree":"1","num_trees":"386"},"iteration_indptr":[0,1,2,3,4,5,6,7,8,9,10,11,12,13,14,15,16,17,18,19,20,21,22,23,24,25,26,27,28,29,30,31,32,33,34,35,36,37,38,39,40,41,42,43,44,45,46,47,48,49,50,51,52,53,54,55,56,57,58,59,60,61,62,63,64,65,66,67,68,69,70,71,72,73,74,75,76,77,78,79,80,81,82,83,84,85,86,87,88,89,90,91,92,93,94,95,96,97,98,99,100,101,102,103,104,105,106,107,108,109,110,111,112,113,114,115,116,117,118,119,120,121,122,123,124,125,126,127,128,129,130,131,132,133,134,135,136,137,138,139,140,141,142,143,144,145,146,147,148,149,150,151,152,153,154,155,156,157,158,159,160,161,162,163,164,165,166,167,168,169,170,171,172,173,174,175,176,177,178,179,180,181,182,183,184,185,186,187,188,189,190,191,192,193,194,195,196,197,198,199,200,201,202,203,204,205,206,207,208,209,210,211,212,213,214,215,216,217,218,219,220,221,222,223,224,225,226,227,228,229,230,231,232,233,234,235,236,237,238,239,240,241,242,243,244,245,246,247,248,249,250,251,252,253,254,255,256,257,258,259,260,261,262,263,264,265,266,267,268,269,270,271,272,273,274,275,276,277,278,279,280,281,282,283,284,285,286,287,288,289,290,291,292,293,294,295,296,297,298,299,300,301,302,303,304,305,306,307,308,309,310,311,312,313,314,315,316,317,318,319,320,321,322,323,324,325,326,327,328,329,330,331,332,333,334,335,336,337,338,339,340,341,342,343,344,345,346,347,348,349,350,351,352,353,354,355,356,357,358,359,360,361,362,363,364,365,366,367,368,369,370,371,372,373,374,375,376,377,378,379,380,381,382,383,384,385,386],"tree_info":[0,0,0,0,0,0,0,0,0,0,0,0,0,0,0,0,0,0,0,0,0,0,0,0,0,0,0,0,0,0,0,0,0,0,0,0,0,0,0,0,0,0,0,0,0,0,0,0,0,0,0,0,0,0,0,0,0,0,0,0,0,0,0,0,0,0,0,0,0,0,0,0,0,0,0,0,0,0,0,0,0,0,0,0,0,0,0,0,0,0,0,0,0,0,0,0,0,0,0,0,0,0,0,0,0,0,0,0,0,0,0,0,0,0,0,0,0,0,0,0,0,0,0,0,0,0,0,0,0,0,0,0,0,0,0,0,0,0,0,0,0,0,0,0,0,0,0,0,0,0,0,0,0,0,0,0,0,0,0,0,0,0,0,0,0,0,0,0,0,0,0,0,0,0,0,0,0,0,0,0,0,0,0,0,0,0,0,0,0,0,0,0,0,0,0,0,0,0,0,0,0,0,0,0,0,0,0,0,0,0,0,0,0,0,0,0,0,0,0,0,0,0,0,0,0,0,0,0,0,0,0,0,0,0,0,0,0,0,0,0,0,0,0,0,0,0,0,0,0,0,0,0,0,0,0,0,0,0,0,0,0,0,0,0,0,0,0,0,0,0,0,0,0,0,0,0,0,0,0,0,0,0,0,0,0,0,0,0,0,0,0,0,0,0,0,0,0,0,0,0,0,0,0,0,0,0,0,0,0,0,0,0,0,0,0,0,0,0,0,0,0,0,0,0,0,0,0,0,0,0,0,0,0,0,0,0,0,0,0,0,0,0,0,0,0,0,0,0,0,0,0,0,0,0,0,0,0,0,0,0,0,0,0,0,0,0,0,0,0,0,0,0,0,0,0,0,0,0,0,0,0,0,0,0,0,0],"trees":[{"base_weights":[7.0043474E-2,-2.6789806E0,1.2958459E0,8.438059E-2,-3.0820844E0,-1.8458586E0,1.3462511E0,-3.3435934E0,-1.3036833E0,8.5088724E-1,-2.6144187E0,-4.857418E-1,1.3646255E0,8.6990726E-1,-3.379471E0,-3.1434923E-2,-2.215198E0,1.1695141E0,-1.5266006E0,8.23898E-2,-2.8213058E0,-2.141366E0,6.8405545E-1,6.303388E-1,1.3827317E0,1.0808653E0,-1.7079277E-1,-1.2335792E0,-3.3932276E0,3.74162E-1,-3.314134E0,-2.5230033E0,-5.3751713E-1,8.332136E-2,5.977726E-1,-1.3759045E-2,-2.1984916E0,-3.1023881E0,-1.1937625E0,8.2624175E-2,-2.858023E0,-2.0341343E-1,8.5473293E-1,1.3317224E0,3.469903E-2,1.3850608E0,-2.677174E-1,6.642295E-1,8.256648E-2,-2.8860836E0,1.1511362E0,-2.9921975E0,-3.4268618E0,7.5884557E-1,-2.0130515E-1,-1.1899944E-1,-2.0499933E-1,-1.2259394E0,-2.7538598E0,6.090354E-1,-2.336279E0,-7.678222E-2,6.101326E-2,-7.769219E-2,-1.674777E-1,-2.0073332E-1,-2.4472394E0,1.834269E-1,-2.0791779E0,-3.8401112E-1,-3.0768442E0,8.3963394E-2,3.1563577E-1,8.186623E-2,-5.3524025E-2,2.8929394E-1,-2.421946E0,1.3857713E0,-9.415495E-1,6.4036876E-1,-1.0734582E0,-4.8393026E-2,5.1202014E-2,-2.045857E-1,3.448624E-2,8.280984E-2,-0E0,-1.5038819E0,-3.214689E0,-3.2575808E0,-3.4374712E0,1.1206776E0,2.5064415E-1,-2.0688191E-1,-8.9917046E-1,1.0471611E-1,-2.820832E0,1.0061572E0,-5.914801E-1,-1.1531063E0,-2.9014034E0,-1.4266376E0,-3.1252313E0,-5.7072986E-2,7.8150004E-1,-1.9835566E-1,-8.2170886E-1,-1.239654E-1,5.021069E-2,-2.5127158E0,-2.0657162E-1,-1.7704185E0,5.617576E-1,5.1772875E-1,-1.4685154E0,-1.6294276E0,-2.0697701E-1,1.2037702E0,1.3919557E0,-1.16761364E-1,1.879829E-2,-3.0758217E-2,5.5868525E-2,-1.0119559E-2,-1.3711137E0,-2.9281967E0,-6.716388E-1,-3.3913488E0,-2.9006972E0,-2.762876E0,-2.036154E-1,-3.2411592E0,-3.444256E0,1.1715512E0,-1.6282049E-1,-2.909228E-1,1.1429371E0,-5.806136E-1,-2.0594354E-1,-9.401572E-2,6.37664E-2,-2.895821E0,-1.2460635E0,-6.0525447E-2,1.2149115E0,2.9967595E-2,-1.4263582E0,-7.829696E-1,-1.5606397E-1,-1.5480458E0,-3.2250788E0,-2.2394383E-1,-2.3843455E0,-2.158763E0,-2.0129776E-1,-0E0,6.641119E-2,-1.9813792E-1,-2.426352E-2,-2.2649033E0,-2.0399337E-1,-5.9645634E-2,-1.5966867E-1,3.5718903E-2,1.0787345E0,-1.5859679E0,6.469148E-1,-1.8391031E-1,-7.156593E-1,-1.6491233E-1,-4.4151935E-1,1.35712E0,9.2524165E-1,9.986755E-4,1.3921608E0,-1.8187888E0,-0E0,-1.8486162E-1,-7.769219E-2,-1.451068E-1,-1.3131664E-2,-1.802646E-1,-2.0792083E-1,-1.7741136E-1,7.765713E-4,-1.998732E-1,-1.0606116E-1,-1.9858758E-1,-1.3334502E-1,-2.0431808E-1,-2.0877142E-1,7.6040156E-2,3.126272E-4,-4.6321318E-2,2.9564055E-2,7.174799E-2,1.4362583E-2,-1.3917763E-2,-1.4708184E-1,6.8543814E-2,-1.7573918E-1,2.2748647E-2,-1.6984172E-1,7.661216E-2,1.123176E-2,-4.2913754E-2,2.5254685E-2,-1.651521E-2,-1.269699E-1,-9.7305275E-2,-3.2494082E-3,-1.5606397E-1,-3.3403892E-2,-1.4849871E-1,-2.0785488E-1,4.1684084E-2,-3.6019128E-2,-9.803339E-2,-1.8809417E-1,-6.917129E-2,-1.7362666E-1,2.5174143E-2,-7.769219E-2,-3.3960097E-2,-1.4843082E-1,-3.433633E-2,5.9125714E-2,3.0924732E-2,7.581514E-2,-1.3153165E-2,-1.6114843E-1,-1.7178543E-1,4.262417E-2,1.1336679E-2,-1.8582657E-1,3.747714E-2,-9.401572E-2,1.879829E-2,8.200806E-2,6.313379E-2,3.1098835E-2,7.927668E-2,8.398997E-2,-1.6624394E-1,-7.220026E-2],"categories":[],"categories_nodes":[],"categories_segments":[],"categories_sizes":[],"default_left":[0,0,1,0,1,0,0,0,0,0,0,0,0,0,0,0,0,1,0,0,0,0,0,0,0,0,0,1,0,1,0,0,0,0,1,0,0,1,0,0,0,0,0,0,0,0,0,0,0,1,0,0,0,1,0,0,0,0,0,0,0,0,0,0,0,0,0,1,0,1,0,0,0,0,0,1,1,0,0,1,0,0,0,0,0,0,0,0,0,0,0,1,0,0,1,1,1,0,0,0,0,0,0,0,1,0,0,0,0,1,0,0,0,0,0,0,0,0,0,0,0,0,0,0,0,0,0,0,1,0,0,0,0,0,0,1,0,0,0,0,0,0,0,0,0,0,0,0,0,1,0,0,0,0,0,0,0,0,0,0,0,0,0,0,0,0,0,0,0,0,0,0,0,0,1,1,0,0,0,0,0,0,0,0,0,0,0,0,0,0,0,0,0,0,0,0,0,0,0,0,0,0,0,0,0,0,0,0,0,0,0,0,0,0,0,0,0,0,0,0,0,0,0,0,0,0,0,0,0,0,0,0,0,0,0,0,0,0,0,0,0,0,0,0,0],"id":0,"left_children":[1,3,5,-1,7,9,11,13,15,17,19,21,23,25,27,29,31,33,35,-1,37,39,41,43,45,47,-1,49,51,53,55,57,59,-1,61,-1,63,65,67,-1,69,-1,71,73,75,77,79,81,-1,83,85,87,89,91,-1,-1,-1,93,95,97,99,-1,-1,-1,-1,-1,101,103,105,107,109,-1,111,-1,-1,113,115,117,119,121,123,-1,-1,-1,-1,-1,-1,125,127,129,131,133,135,-1,137,139,141,143,145,147,149,151,153,-1,155,-1,157,-1,-1,159,-1,161,163,165,167,169,-1,171,173,-1,-1,-1,-1,-1,175,177,179,181,183,185,-1,187,189,191,-1,193,195,197,-1,-1,-1,199,201,-1,203,205,207,209,-1,211,213,215,217,219,-1,-1,-1,-1,221,223,-1,-1,-1,225,227,229,231,-1,233,-1,235,237,239,-1,241,243,-1,-1,-1,-1,-1,-1,-1,-1,-1,-1,-1,-1,-1,-1,-1,-1,-1,-1,-1,-1,-1,-1,-1,-1,-1,-1,-1,-1,-1,-1,-1,-1,-1,-1,-1,-1,-1,-1,-1,-1,-1,-1,-1,-1,-1,-1,-1,-1,-1,-1,-1,-1,-1,-1,-1,-1,-1,-1,-1,-1,-1,-1,-1,-1,-1,-1,-1,-1,-1],"loss_changes":[4.8771162E5,7.342472E4,1.5851078E4,0E0,1.8882781E4,3.278559E3,3.318E3,5.358375E3,6.0364316E3,2.6490997E2,1.0170791E3,1.8959928E3,1.2930938E3,2.3110204E2,1.027625E3,2.9015286E3,1.5609717E3,3.4325012E1,3.1204903E1,0E0,5.269541E2,1.0242163E3,3.929801E2,9.793503E2,3.6796875E2,3.0544891E1,0E0,8.895149E2,4.57375E2,2.764597E3,1.851831E1,7.596416E2,9.7561444E2,0E0,6.7585266E1,0E0,5.893181E0,1.3990234E2,2.150235E2,0E0,1.7620825E2,0E0,1.5697797E2,6.871533E1,7.9216406E2,1.5817188E2,9.837988E1,3.284484E1,0E0,2.416283E2,2.2889923E1,8.865996E2,4.390625E1,3.201952E2,0E0,0E0,0E0,2.7255133E2,4.210547E2,1.3789658E2,1.1535034E2,0E0,0E0,0E0,0E0,0E0,1.734834E2,4.539188E1,1.5494464E2,6.0181503E1,4.9744873E1,0E0,1.40289E2,0E0,0E0,4.6172748E2,8.573297E1,1.02046875E2,3.849439E1,2.1274908E1,1.6560448E1,0E0,0E0,0E0,0E0,0E0,0E0,4.1196997E2,1.1751953E2,1.0553711E2,2.64375E1,1.9696423E2,3.5531506E2,0E0,2.6537573E2,7.792909E1,2.4293555E2,9.180597E1,3.9035168E1,2.6080849E1,4.47312E1,1.1805553E2,2.215393E1,0E0,1.3248438E1,0E0,9.90753E1,0E0,0E0,1.5051575E1,0E0,1.26870575E1,6.5658455E1,2.762949E2,1.5042435E2,8.398178E1,0E0,1.2958643E2,2.3421875E1,0E0,0E0,0E0,0E0,0E0,2.9232132E1,2.1815552E1,1.7188336E2,2.3992188E1,1.20629395E2,2.0715991E2,0E0,4.9609375E1,2.071875E1,1.0573193E2,0E0,1.7065854E2,9.720062E0,1.919527E2,0E0,0E0,0E0,1.9685742E2,2.5520253E2,0E0,9.125671E0,1.0932796E1,2.0297314E1,2.7203615E1,0E0,2.0367683E1,4.94928E0,1.647507E1,2.3379639E1,1.4987488E1,0E0,0E0,0E0,0E0,2.4620039E1,2.7601044E1,0E0,0E0,0E0,7.263332E1,9.38237E0,8.19055E1,2.0298788E2,0E0,1.9905383E2,0E0,4.2250946E1,7.9663086E0,5.3549683E1,0E0,1.634375E1,1.4956223E1,0E0,0E0,0E0,0E0,0E0,0E0,0E0,0E0,0E0,0E0,0E0,0E0,0E0,0E0,0E0,0E0,0E0,0E0,0E0,0E0,0E0,0E0,0E0,0E0,0E0,0E0,0E0,0E0,0E0,0E0,0E0,0E0,0E0,0E0,0E0,0E0,0E0,0E0,0E0,0E0,0E0,0E0,0E0,0E0,0E0,0E0,0E0,0E0,0E0,0E0,0E0,0E0,0E0,0E0,0E0,0E0,0E0,0E0,0E0,0E0,0E0,0E0,0E0,0E0,0E0,0E0,0E0,0E0,0E0],"parents":[2147483647,0,0,1,1,2,2,4,4,5,5,6,6,7,7,8,8,9,9,10,10,11,11,12,12,13,13,14,14,15,15,16,16,17,17,18,18,20,20,21,21,22,22,23,23,24,24,25,25,27,27,28,28,29,29,30,30,31,31,32,32,34,34,36,36,37,37,38,38,40,40,42,42,43,43,44,44,45,45,46,46,47,47,49,49,50,50,51,51,52,52,53,53,57,57,58,58,59,59,60,60,66,66,67,67,68,68,69,69,70,70,72,72,75,75,76,76,77,77,78,78,79,79,80,80,87,87,88,88,89,89,90,90,91,91,92,92,94,94,95,95,96,96,97,97,98,98,99,99,100,100,101,101,102,102,104,104,106,106,109,109,111,111,112,112,113,113,114,114,115,115,117,117,118,118,124,124,125,125,126,126,127,127,128,128,129,129,131,131,132,132,133,133,135,135,136,136,137,137,141,141,142,142,144,144,145,145,146,146,147,147,149,149,150,150,151,151,152,152,153,153,158,158,159,159,163,163,164,164,165,165,166,166,168,168,170,170,171,171,172,172,174,174,175,175],"right_children":[2,4,6,-1,8,10,12,14,16,18,20,22,24,26,28,30,32,34,36,-1,38,40,42,44,46,48,-1,50,52,54,56,58,60,-1,62,-1,64,66,68,-1,70,-1,72,74,76,78,80,82,-1,84,86,88,90,92,-1,-1,-1,94,96,98,100,-1,-1,-1,-1,-1,102,104,106,108,110,-1,112,-1,-1,114,116,118,120,122,124,-1,-1,-1,-1,-1,-1,126,128,130,132,134,136,-1,138,140,142,144,146,148,150,152,154,-1,156,-1,158,-1,-1,160,-1,162,164,166,168,170,-1,172,174,-1,-1,-1,-1,-1,176,178,180,182,184,186,-1,188,190,192,-1,194,196,198,-1,-1,-1,200,202,-1,204,206,208,210,-1,212,214,216,218,220,-1,-1,-1,-1,222,224,-1,-1,-1,226,228,230,232,-1,234,-1,236,238,240,-1,242,244,-1,-1,-1,-1,-1,-1,-1,-1,-1,-1,-1,-1,-1,-1,-1,-1,-1,-1,-1,-1,-1,-1,-1,-1,-1,-1,-1,-1,-1,-1,-1,-1,-1,-1,-1,-1,-1,-1,-1,-1,-1,-1,-1,-1,-1,-1,-1,-1,-1,-1,-1,-1,-1,-1,-1,-1,-1,-1,-1,-1,-1,-1,-1,-1,-1,-1,-1,-1,-1],"split_conditions":[2E0,1E0,-5.304E0,8.438059E-2,0E0,4.1009343E-1,4.01E1,5.0001264E-1,4.321404E-1,4.727774E-1,5.0001264E-1,3E0,1E0,8.599816E-1,3.7366234E-2,9.209705E-1,1E0,5.0001264E-1,8.5845906E-1,8.23898E-2,3E0,5.0001264E-1,4.5010146E-1,3.7875795E-1,1E0,1.1964042E-2,-1.7079277E-1,2.62E1,1.7507559E-1,5.000149E-1,9.332388E-1,4.1358712E-1,8.5938644E-1,8.332136E-2,4.83E1,-1.3759045E-2,1.11951E1,5.79E1,8.045429E-1,8.2624175E-2,1.0991627E-1,-2.0341343E-1,5.0001264E-1,7.757584E-1,8.4142566E-1,1E0,7.7734876E-1,5.526977E-3,8.256648E-2,3.02638E0,4.217503E-1,3.5142997E-1,3.181128E-1,5.0001264E-1,-2.0130515E-1,-1.1899944E-1,-2.0499933E-1,4.863E1,1.163795E-1,6.289164E-1,5.000155E-1,-7.678222E-2,6.101326E-2,-7.769219E-2,-1.674777E-1,-2.0073332E-1,1.85208E1,5.000149E-1,5.97E1,3.74089E0,2.122196E-1,8.3963394E-2,1E0,8.186623E-2,-5.3524025E-2,5.000155E-1,8.5845906E-1,3E0,3E0,5.0001377E-1,1E0,-4.8393026E-2,5.1202014E-2,-2.045857E-1,3.448624E-2,8.280984E-2,-0E0,5.18E1,5.12E1,3.4810296E-1,5.857154E-1,5E0,2.9463512E-1,-2.0688191E-1,5.000155E-1,9.4E0,1.628E1,1.4052658E-1,7.23587E0,8.273917E-1,4.4868222E-1,4.727774E-1,2.1048075E-1,-5.7072986E-2,3.9E1,-1.9835566E-1,5.0001377E-1,-1.239654E-1,5.021069E-2,-1E-5,-2.0657162E-1,2.122196E-1,4E0,-3.348E0,5.976607E-1,-5.38E-1,-2.0697701E-1,5.5082566E-1,7.96E0,-1.16761364E-1,1.879829E-2,-3.0758217E-2,5.5868525E-2,-1.0119559E-2,5.792184E-1,8.230738E-1,1.9146878E-2,1.6214089E-1,3.07077E1,5.33E1,-2.036154E-1,1E0,2.0901974E-1,4.1383594E-1,-1.6282049E-1,6.495289E-2,5E-3,1.6987093E-1,-2.0594354E-1,-9.401572E-2,6.37664E-2,5.0001264E-1,8.239999E-1,-6.0525447E-2,8.5845906E-1,3.74778E0,2.7762032E-1,5.0001377E-1,-1.5606397E-1,6.51361E0,4.10723E0,1.4974183E-1,7.0635194E-1,2.86018E-1,-2.0129776E-1,-0E0,6.641119E-2,-1.9813792E-1,7.36879E0,5.0001377E-1,-2.0399337E-1,-5.9645634E-2,-1.5966867E-1,1E0,5.6927127E-1,3.974411E-1,7.84E0,-1.8391031E-1,8.242329E-1,-1.6491233E-1,1.15259E1,4.83E1,5.8271426E-1,9.986755E-4,-1E-5,4.81373E0,-0E0,-1.8486162E-1,-7.769219E-2,-1.451068E-1,-1.3131664E-2,-1.802646E-1,-2.0792083E-1,-1.7741136E-1,7.765713E-4,-1.998732E-1,-1.0606116E-1,-1.9858758E-1,-1.3334502E-1,-2.0431808E-1,-2.0877142E-1,7.6040156E-2,3.126272E-4,-4.6321318E-2,2.9564055E-2,7.174799E-2,1.4362583E-2,-1.3917763E-2,-1.4708184E-1,6.8543814E-2,-1.7573918E-1,2.2748647E-2,-1.6984172E-1,7.661216E-2,1.123176E-2,-4.2913754E-2,2.5254685E-2,-1.651521E-2,-1.269699E-1,-9.7305275E-2,-3.2494082E-3,-1.5606397E-1,-3.3403892E-2,-1.4849871E-1,-2.0785488E-1,4.1684084E-2,-3.6019128E-2,-9.803339E-2,-1.8809417E-1,-6.917129E-2,-1.7362666E-1,2.5174143E-2,-7.769219E-2,-3.3960097E-2,-1.4843082E-1,-3.433633E-2,5.9125714E-2,3.0924732E-2,7.581514E-2,-1.3153165E-2,-1.6114843E-1,-1.7178543E-1,4.262417E-2,1.1336679E-2,-1.8582657E-1,3.747714E-2,-9.401572E-2,1.879829E-2,8.200806E-2,6.313379E-2,3.1098835E-2,7.927668E-2,8.398997E-2,-1.6624394E-1,-7.220026E-2],"split_indices":[64,64,56,0,56,146,19,128,146,143,128,64,33,141,143,141,33,128,137,0,64,128,70,146,89,146,0,19,138,128,141,137,146,0,19,0,44,19,122,0,138,0,128,143,141,92,146,141,0,41,146,146,138,128,0,0,0,58,143,146,128,0,0,0,0,0,46,128,19,46,122,0,33,0,0,128,137,64,64,128,99,0,0,0,0,0,0,19,19,143,122,53,142,0,128,59,58,138,46,143,143,143,138,0,19,0,128,0,0,14,0,122,64,56,146,56,0,146,58,0,0,0,0,0,138,137,138,122,44,19,0,96,146,146,0,138,56,138,0,0,0,128,141,0,137,44,137,128,0,44,41,137,143,137,0,0,0,0,44,128,0,0,0,96,141,138,58,0,146,0,46,19,143,0,128,44,0,0,0,0,0,0,0,0,0,0,0,0,0,0,0,0,0,0,0,0,0,0,0,0,0,0,0,0,0,0,0,0,0,0,0,0,0,0,0,0,0,0,0,0,0,0,0,0,0,0,0,0,0,0,0,0,0,0,0,0,0,0,0,0,0,0,0,0,0],"split_type":[0,0,0,0,0,0,0,0,0,0,0,0,0,0,0,0,0,0,0,0,0,0,0,0,0,0,0,0,0,0,0,0,0,0,0,0,0,0,0,0,0,0,0,0,0,0,0,0,0,0,0,0,0,0,0,0,0,0,0,0,0,0,0,0,0,0,0,0,0,0,0,0,0,0,0,0,0,0,0,0,0,0,0,0,0,0,0,0,0,0,0,0,0,0,0,0,0,0,0,0,0,0,0,0,0,0,0,0,0,0,0,0,0,0,0,0,0,0,0,0,0,0,0,0,0,0,0,0,0,0,0,0,0,0,0,0,0,0,0,0,0,0,0,0,0,0,0,0,0,0,0,0,0,0,0,0,0,0,0,0,0,0,0,0,0,0,0,0,0,0,0,0,0,0,0,0,0,0,0,0,0,0,0,0,0,0,0,0,0,0,0,0,0,0,0,0,0,0,0,0,0,0,0,0,0,0,0,0,0,0,0,0,0,0,0,0,0,0,0,0,0,0,0,0,0,0,0,0,0,0,0,0,0,0,0,0,0,0,0,0,0,0,0,0,0],"sum_hessian":[1.4473219E5,4.4633656E4,1.0009854E5,4.0121978E3,4.0621457E4,1.579956E3,9.8518586E4,3.541293E4,5.208529E3,3.4990002E2,1.230056E3,9.7729895E2,9.754129E4,2.9854074E2,3.5114387E4,2.1749583E3,3.0335703E3,3.092881E2,4.0611935E1,6.026226E1,1.1697938E3,4.0518674E2,5.721122E2,2.3498274E3,9.519146E4,2.8304385E2,1.5496876E1,2.2459709E2,3.488979E4,1.9354513E3,2.3950693E2,2.5623137E3,4.7125668E2,2.22428E2,8.686008E1,1.4834016E1,2.577792E1,9.964481E2,1.7334572E2,6.8191505E1,3.3699524E2,2.2503132E1,5.496091E2,1.0776572E3,1.2721702E3,9.5058414E4,1.3304625E2,1.1908769E2,1.6395616E2,1.3307935E2,9.1517746E1,2.7051501E3,3.218464E4,1.7545557E3,1.808957E2,1.6827408E1,2.2267952E2,3.8848007E2,2.1738337E3,2.8728275E2,1.8397394E2,1.4935501E1,7.1924576E1,1.1508487E1,1.4269432E1,7.330963E2,2.6335184E2,6.711308E1,1.0623263E2,2.8082182E1,3.0891306E2,2.7276602E2,2.7684305E2,1.064972E3,1.2685187E1,1.1535109E3,1.18659294E2,9.503023E4,2.8183668E1,6.153884E1,7.150741E1,1.227604E1,1.0681165E2,1.1635182E2,1.6727528E1,7.612075E1,1.5396995E1,3.530284E2,2.3521216E3,1.9113567E3,3.0273283E4,1.0227043E3,7.318513E2,4.9097744E1,3.3938232E2,4.9158108E1,2.1246755E3,2.1700117E2,7.028157E1,6.0663387E1,1.2331055E2,1.0638967E2,1.5696216E2,2.2147934E1,4.4965145E1,5.3138477E1,5.309415E1,1.2377524E1,1.5704658E1,1.2177865E2,1.871344E2,2.8335896E1,2.4850716E2,1.02185394E3,1.3165695E2,6.792496E1,5.0734333E1,3.1336055E3,9.1896625E4,1.641826E1,1.1765407E1,1.1048596E1,5.0490246E1,1.9233158E1,5.2274254E1,1.292432E2,2.2378522E2,1.5004547E3,8.5166693E2,3.8911404E2,1.5222427E3,1.02308704E3,2.9250197E4,1.0098669E3,1.2837415E1,4.5428024E2,2.775711E2,3.0214987E2,3.7232456E1,1.7185814E1,3.1972296E1,2.0268779E3,9.779757E1,1.9539217E1,1.9746196E2,3.9183125E1,3.1098446E1,4.9462563E1,1.1200824E1,2.5062712E1,9.824783E1,4.8082893E1,5.8306778E1,3.0841524E1,1.2612063E2,1.1611575E1,3.335357E1,1.2274436E1,4.0819717E1,9.70252E1,2.4753445E1,1.6316776E1,1.2019119E1,1.24966385E2,1.2354078E2,5.8206898E1,9.6364703E2,4.142702E1,9.0229935E1,3.4216194E1,3.3708767E1,2.0163767E3,1.1172286E3,1.4987847E1,9.188163E4,3.8463108E1,1.3811146E1,1.177347E2,1.1508487E1,4.5315533E1,1.7846968E2,2.0984692E2,1.2906078E3,8.3887866E2,1.2788277E1,2.4850818E2,1.4060587E2,9.664676E2,5.6619442E1,9.488593E3,1.9761604E4,9.348769E2,7.4989975E1,2.8322116E2,1.710591E2,2.6140656E2,1.6164549E1,2.5540231E2,4.6747547E1,1.1305516E1,2.0155724E3,4.767535E1,5.0122215E1,1.852874E2,1.2174555E1,1.1866892E1,2.7316233E1,1.2634445E1,1.8464E1,2.1840271E1,2.7622292E1,1.1200824E1,1.3861889E1,2.5010366E1,7.3237465E1,1.253296E1,3.5549934E1,3.0330893E1,2.7975885E1,1.4117205E1,1.672432E1,2.931123E1,1.1508487E1,1.125317E1,8.577203E1,7.508986E1,4.9876522E1,3.248293E1,9.105785E1,2.6650166E1,3.1556732E1,1.5906024E1,9.47741E2,6.4913506E1,2.5316425E1,1.6522953E1,1.7185814E1,1.1765407E1,2.0046113E3,8.5429663E2,2.6293204E2,3.669843E3,8.821179E4,1.3860285E1,2.4602821E1],"tree_param":{"num_deleted":"0","num_feature":"147","num_nodes":"245","size_leaf_vector":"1"}},{"base_weights":[7.111295E-2,-2.4270482E0,1.175136E0,7.788536E-1,-2.6782386E0,-5.245012E-1,1.3401178E0,1.2444515E0,-1.8045917E-1,-2.8595269E0,3.3693534E-1,-1.103818E-1,-1.9640698E0,1.3445597E0,-3.283737E-1,1.3346258E0,-1.7991725E-1,-2.138756E0,-2.9432278E0,-1.5971493E0,1.1095951E0,-2.4296587E0,8.312511E-2,-2.7597253E0,-7.614384E-1,1.1794505E0,1.3610873E0,-2.4512184E0,3.335477E-1,1.0119983E0,8.212021E-2,-1.0406569E0,-2.3577683E0,-2.9512374E0,-2.028555E0,9.7855127E-1,-2.235375E0,1.198103E0,-2.1923153E0,-1.1567597E0,-2.8307583E0,-2.2416632E0,2.786273E-1,-2.7970982E0,2.5414744E-2,-1.6835731E-1,-2.7491539E0,1.3014029E0,9.774299E-2,1.361484E0,-0E0,-3.0223241E-2,-1.8127073E-1,-1.7966796E0,8.322465E-1,3.9895314E-1,8.128022E-2,8.1909604E-2,-2.2542264E0,-2.5767326E0,-1.4464623E0,-2.9521143E0,-1.3862892E-2,-2.266392E0,-1.4727876E-1,-1.4373146E-1,8.169901E-2,-2.9535866E0,-1.5148137E0,-7.5115407E-1,1.2618344E0,-1.8995063E-1,-4.7244817E-2,-2.5997755E-1,-1.8036702E-1,-1.5837599E0,-1.7505056E-1,-3.8678783E-1,-2.8198998E0,1.2428135E0,4.8443954E-2,-2.2859216E0,-2.9579263E0,2.852247E-1,-2.8047376E0,-9.791367E-2,-2.8891547E0,-4.9315034E-3,1.3110231E0,4.9325642E-1,-1.9804538E0,4.2025764E-3,1.361686E0,-5.2084357E-2,4.7019027E-2,-2.1254133E-2,-1.9568941E-1,-6.890283E-2,1.0533713E0,-3.729106E-2,3.795794E-2,-1.788565E-1,-3.3192882E-1,-2.051692E0,-2.8662915E0,8.034631E-2,-1.8041887E0,-2.7680168E0,-2.9648628E0,-1.1152964E0,-2.65376E0,3.4470994E-2,-1.03254944E-1,-1.0923889E-1,-1.8186852E-1,-8.637378E-1,-1.8404642E-1,5.8379926E-2,-1.6521797E0,-9.223255E-2,7.750046E-2,7.4299324E-1,-1.1320171E0,-7.3112757E-3,-1.7268798E-1,3.1666327E-1,-1.5355276E-1,-2.9099128E0,-6.047128E-2,1.3231199E0,-1.5794817E-1,-1.3452151E0,2.1584447E-1,-1.8237793E0,-1.8430994E-1,-2.9876418E0,-1.9644021E0,6.455359E-1,-1.4425507E0,-1.8249434E-1,-9.13131E-2,-1.8114713E-1,-1.0930111E-1,-7.523489E-2,6.100159E-1,1.0164158E0,1.3210622E0,8.7792575E-1,-3.333828E-1,-7.1335155E-1,-2.4141135E0,8.202781E-2,1.1621165E0,7.838876E-3,6.9904186E-2,2.2308354E-1,-2.0543458E0,-2.8538523E0,-1.3294152E0,-2.4063811E0,-2.9311247E0,-2.3604078E0,-1.0557897E0,-2.908607E0,-2.0710876E0,-2.969597E0,-2.6227987E0,-6.115059E-1,-1.763833E-1,-1.8254586E-1,-2.343012E0,-2.458195E0,-4.304548E-2,-7.495395E-3,-1.4764832E-1,6.61579E-2,3.1425196E-3,-2.088271E0,2.8458642E-2,6.776803E-1,-1.0156654E-1,-2.5368412E0,-1.8459585E-1,8.054112E-2,3.5292838E-2,-2.162166E0,7.5094804E-2,3.0654156E-1,-2.7519069E0,-2.7223008E0,-8.2026774E-1,-3.0129945E0,-1.18259914E-1,-1.7513761E-1,-3.336867E-2,8.535667E-1,-1.9377061E0,7.559428E-1,-1.6769232E-1,-0E0,5.5524554E-2,-4.329321E-2,1.1134386E0,7.969837E-2,3.615617E-2,-2.880379E-1,1.0475618E0,-1.1243914E0,6.649062E-3,-9.257175E-2,-5.454033E-3,-1.5876326E-1,-6.784432E-2,1.2447565E0,2.6369244E-1,3.8982887E-2,-1.8269124E-2,-1.7872843E-1,-7.350064E-2,-9.695859E-2,-1.767794E-1,-9.3258575E-2,7.936666E-2,-6.9287434E-2,-1.548085E-1,-1.661087E-1,-1.8071337E-1,-1.5475409E-1,-6.298621E-2,-1.3842466E-1,1.9579746E-2,-1.0179244E-1,-1.7757376E-1,-8.4270604E-2,-1.6174217E-1,-1.8167037E-1,-1.7737404E-1,-4.6519995E-2,-1.6500905E-1,-2.3351382E-3,-1.3959673E-1,-7.710409E-2,-1.609429E-1,-1.8196858E-1,-8.247298E-2,2.3958826E-2,-1.7897712E-1,-6.54043E-2,-1.5575929E-1,7.900309E-2,4.733123E-3,-2.2153659E-2,-1.7957148E-1,-5.378448E-2,-1.710142E-1,-1.1850185E-1,2.4508623E-2,-1.0238454E-1,-1.8086886E-1,-1.1117619E-1,-1.7551652E-1,-1.0518346E-1,2.155868E-2,-1.3090596E-1,-1.8328801E-1,5.603702E-2,-6.411866E-2,-1.5795883E-2,-1.7886434E-1,7.0012696E-2,6.6014146E-3,7.055521E-2,4.2934385E-3,2.7569883E-2,-6.5685295E-2,4.986946E-2,7.395067E-2,-1.5480381E-1,-1.8157467E-2,-5.416707E-2,7.708616E-3,7.780545E-2,-7.9289125E-3,5.225599E-2,-2.935569E-2],"categories":[],"categories_nodes":[],"categories_segments":[],"categories_sizes":[],"default_left":[1,1,0,1,0,0,0,1,0,0,0,1,1,0,1,0,0,0,1,0,0,0,0,0,0,1,0,0,0,1,0,0,0,1,0,0,0,0,0,0,0,0,0,0,0,0,0,0,0,0,0,0,0,0,0,0,0,0,0,0,0,0,0,0,1,0,0,0,0,0,0,0,0,0,0,0,0,0,1,0,0,0,1,1,0,0,0,1,0,0,0,0,0,0,0,0,0,0,0,0,0,0,0,0,0,0,0,0,0,0,0,0,0,0,0,0,0,0,0,0,0,0,0,0,0,0,0,1,0,0,0,1,0,0,0,1,0,1,0,0,0,0,0,0,0,0,0,0,0,0,0,0,0,0,0,0,0,0,0,0,0,1,1,0,1,0,0,1,0,0,0,0,0,0,0,0,0,0,0,0,0,0,0,0,0,0,0,0,0,0,0,0,0,0,0,0,0,0,0,0,0,0,0,0,0,0,0,0,0,0,0,0,0,0,0,0,0,0,0,0,0,0,0,0,0,0,0,0,0,0,0,0,0,0,0,0,0,0,0,0,0,0,0,0,0,0,0,0,0,0,0,0,0,0,0,0,0,0,0,0,0,0,0,0,0,0,0,0,0,0,0,0,0,0,0,0,0,0,0,0,0,0,0,0,0],"id":1,"left_children":[1,3,5,7,9,11,13,15,-1,17,19,21,23,25,27,29,-1,31,33,35,37,39,41,43,45,47,49,51,53,55,-1,57,59,61,63,65,67,69,71,73,75,77,79,81,-1,83,85,87,89,91,93,-1,-1,95,97,99,-1,-1,101,103,105,107,-1,109,111,-1,-1,113,115,117,119,-1,-1,121,-1,123,-1,125,127,129,131,133,135,137,139,-1,141,143,145,147,149,-1,151,-1,-1,-1,-1,-1,153,-1,-1,-1,155,157,159,-1,161,163,165,167,169,-1,-1,-1,-1,171,-1,-1,173,-1,-1,175,177,-1,-1,179,-1,181,-1,183,-1,185,187,189,-1,191,193,195,197,-1,-1,-1,-1,-1,199,201,203,205,207,209,211,-1,213,-1,-1,215,217,219,221,223,225,227,229,231,233,235,237,239,-1,-1,241,243,245,-1,-1,-1,-1,247,-1,249,-1,251,-1,-1,-1,253,-1,255,257,259,261,263,-1,-1,-1,265,267,269,-1,-1,-1,-1,271,-1,-1,273,275,277,279,-1,-1,-1,-1,281,283,-1,-1,-1,-1,-1,-1,-1,-1,-1,-1,-1,-1,-1,-1,-1,-1,-1,-1,-1,-1,-1,-1,-1,-1,-1,-1,-1,-1,-1,-1,-1,-1,-1,-1,-1,-1,-1,-1,-1,-1,-1,-1,-1,-1,-1,-1,-1,-1,-1,-1,-1,-1,-1,-1,-1,-1,-1,-1,-1,-1,-1,-1,-1,-1,-1,-1,-1,-1,-1,-1],"loss_changes":[3.9744675E5,3.5570453E4,2.8025688E4,5.6399053E3,2.2392719E4,5.267427E3,6.7703125E2,1.0884907E3,0E0,2.3206562E3,3.470257E3,3.086398E3,1.8825986E3,2.4315625E2,3.4250363E2,2.2247559E1,0E0,9.6098047E2,2.436875E2,1.0915558E3,4.839613E2,2.62729E2,2.8774404E3,1.4560156E2,9.2285254E2,1.089581E3,4.590625E1,5.6762543E1,1.9323407E2,4.6730087E1,0E0,1.9563685E3,6.611211E2,7.6125E1,1.3124133E2,1.6593192E2,2.663152E2,2.020354E2,5.0721375E1,2.0570221E2,2.9871826E1,5.2075366E2,1.295511E3,8.598828E1,0E0,7.3073645E2,1.946643E1,9.578516E1,6.883571E2,1.9E1,1.6124258E1,0E0,0E0,6.510421E1,6.531941E1,2.0785437E1,0E0,0E0,6.087158E2,4.0085156E2,6.4938916E2,6.884375E1,0E0,1.123468E2,4.1756844E1,0E0,0E0,1.0831787E1,2.6066302E2,7.974537E1,1.12163574E2,0E0,0E0,7.7008896E1,0E0,4.1941734E1,0E0,1.8316754E2,5.3578613E1,3.4784216E2,1.0997603E3,9.231433E1,1.6420898E1,3.2105392E2,1.7322998E1,0E0,1.0900513E1,4.2018192E1,1.746289E1,2.2580588E2,6.7620605E1,0E0,1.1453125E1,0E0,0E0,0E0,0E0,0E0,1.1154297E1,0E0,0E0,0E0,1.1999092E2,5.498174E2,4.1078125E1,0E0,2.3403369E2,2.0887305E2,4.05625E1,5.6483177E1,1.2630859E1,0E0,0E0,0E0,0E0,2.425768E2,0E0,0E0,3.680538E1,0E0,0E0,7.714569E0,7.60791E1,0E0,0E0,6.2333294E1,0E0,9.380615E0,0E0,8.528198E0,0E0,1.0723829E3,1.1309602E3,1.5576648E2,0E0,1.2452148E1,3.1049042E1,2.291236E2,2.6545438E2,0E0,0E0,0E0,0E0,0E0,7.2843E0,4.294232E1,1.1413086E1,9.711542E1,6.2000988E1,1.527318E1,2.1101807E1,0E0,2.8098755E1,0E0,0E0,2.1142632E1,1.5197235E1,3.7940918E1,2.9660944E2,3.8365967E1,6.7685547E0,8.4341675E1,4.296995E2,8.418262E1,1.4815088E2,2.3E1,9.0733154E1,4.96026E1,0E0,0E0,3.201483E1,3.042926E1,1.6701921E2,0E0,0E0,0E0,0E0,8.262619E0,0E0,2.631874E1,0E0,9.972998E1,0E0,0E0,0E0,3.2430554E2,0E0,9.341848E2,2.3802673E1,6.5009766E0,9.6853546E1,1.1932617E1,0E0,0E0,0E0,5.9024323E1,4.8560074E1,6.47311E0,0E0,0E0,0E0,0E0,1.2321686E1,0E0,0E0,3.733752E1,1.2979828E1,7.653292E1,1.5685837E1,0E0,0E0,0E0,0E0,2.6958374E1,1.755791E1,0E0,0E0,0E0,0E0,0E0,0E0,0E0,0E0,0E0,0E0,0E0,0E0,0E0,0E0,0E0,0E0,0E0,0E0,0E0,0E0,0E0,0E0,0E0,0E0,0E0,0E0,0E0,0E0,0E0,0E0,0E0,0E0,0E0,0E0,0E0,0E0,0E0,0E0,0E0,0E0,0E0,0E0,0E0,0E0,0E0,0E0,0E0,0E0,0E0,0E0,0E0,0E0,0E0,0E0,0E0,0E0,0E0,0E0,0E0,0E0,0E0,0E0,0E0,0E0,0E0,0E0,0E0,0E0,0E0,0E0],"parents":[2147483647,0,0,1,1,2,2,3,3,4,4,5,5,6,6,7,7,9,9,10,10,11,11,12,12,13,13,14,14,15,15,17,17,18,18,19,19,20,20,21,21,22,22,23,23,24,24,25,25,26,26,27,27,28,28,29,29,31,31,32,32,33,33,34,34,35,35,36,36,37,37,38,38,39,39,40,40,41,41,42,42,43,43,45,45,46,46,47,47,48,48,49,49,50,50,53,53,54,54,55,55,58,58,59,59,60,60,61,61,63,63,64,64,67,67,68,68,69,69,70,70,73,73,75,75,77,77,78,78,79,79,80,80,81,81,82,82,83,83,84,84,86,86,87,87,88,88,89,89,90,90,92,92,98,98,102,102,103,103,104,104,106,106,107,107,108,108,109,109,110,110,115,115,118,118,121,121,122,122,125,125,127,127,129,129,131,131,132,132,133,133,135,135,136,136,137,137,138,138,144,144,145,145,146,146,147,147,148,148,149,149,150,150,152,152,155,155,156,156,157,157,158,158,159,159,160,160,161,161,162,162,163,163,164,164,165,165,166,166,167,167,170,170,171,171,172,172,177,177,179,179,181,181,185,185,187,187,188,188,189,189,190,190,191,191,195,195,196,196,197,197,202,202,205,205,206,206,207,207,208,208,213,213,214,214],"right_children":[2,4,6,8,10,12,14,16,-1,18,20,22,24,26,28,30,-1,32,34,36,38,40,42,44,46,48,50,52,54,56,-1,58,60,62,64,66,68,70,72,74,76,78,80,82,-1,84,86,88,90,92,94,-1,-1,96,98,100,-1,-1,102,104,106,108,-1,110,112,-1,-1,114,116,118,120,-1,-1,122,-1,124,-1,126,128,130,132,134,136,138,140,-1,142,144,146,148,150,-1,152,-1,-1,-1,-1,-1,154,-1,-1,-1,156,158,160,-1,162,164,166,168,170,-1,-1,-1,-1,172,-1,-1,174,-1,-1,176,178,-1,-1,180,-1,182,-1,184,-1,186,188,190,-1,192,194,196,198,-1,-1,-1,-1,-1,200,202,204,206,208,210,212,-1,214,-1,-1,216,218,220,222,224,226,228,230,232,234,236,238,240,-1,-1,242,244,246,-1,-1,-1,-1,248,-1,250,-1,252,-1,-1,-1,254,-1,256,258,260,262,264,-1,-1,-1,266,268,270,-1,-1,-1,-1,272,-1,-1,274,276,278,280,-1,-1,-1,-1,282,284,-1,-1,-1,-1,-1,-1,-1,-1,-1,-1,-1,-1,-1,-1,-1,-1,-1,-1,-1,-1,-1,-1,-1,-1,-1,-1,-1,-1,-1,-1,-1,-1,-1,-1,-1,-1,-1,-1,-1,-1,-1,-1,-1,-1,-1,-1,-1,-1,-1,-1,-1,-1,-1,-1,-1,-1,-1,-1,-1,-1,-1,-1,-1,-1,-1,-1,-1,-1,-1,-1],"split_conditions":[5.696E1,1.0911382E-1,1E0,-1E-5,4E0,5.8271426E-1,1E0,8.906899E-1,-1.8045917E-1,2.2103706E-1,1E0,-3.348E0,1.1818E-1,1E0,2.8569E-2,3.246461E-2,-1.7991725E-1,2E0,7.497224E-1,2.6392943E-1,1E0,2.2103706E-1,8.47E0,1E0,9.4287115E-1,9.541807E-2,1.43E2,3.4401947E-1,4.5617688E-1,-1E-5,8.212021E-2,1E0,1.949204E-1,3.97824E1,1E0,9.478082E-2,1E0,1E0,7.66741E-1,1E0,5.25182E0,2.8182492E-1,1.163795E-1,6.7687905E-1,2.5414744E-2,1E0,3E0,8.75E0,5.33E1,9.13E0,8.369454E-1,-3.0223241E-2,-1.8127073E-1,5.846829E-1,5.899E1,1.1703757E-2,8.128022E-2,8.1909604E-2,2.0791256E-1,1.8333775E-1,2.064392E-1,3.713678E-1,-1.3862892E-2,5.25182E0,-1E-5,-1.4373146E-1,8.169901E-2,4.727774E-1,1E0,6.065614E-2,3.333E-3,-1.8995063E-1,-4.7244817E-2,3.008478E-1,-1.8036702E-1,1E0,-1.7505056E-1,6.6458833E-1,3E0,8.3944386E-1,1.3836095E-1,2.0166E1,3.265E1,8.0074936E-1,6E1,-9.791367E-2,1E0,3E0,5.959E1,8.593267E-1,8.516332E-1,4.2025764E-3,1.067E2,-5.2084357E-2,4.7019027E-2,-2.1254133E-2,-1.9568941E-1,-6.890283E-2,1E0,-3.729106E-2,3.795794E-2,-1.788565E-1,4E0,1.3836095E-1,8.544E0,8.034631E-2,1E0,3.6113065E-1,1E0,9.3294287E-1,9.451E1,3.4470994E-2,-1.03254944E-1,-1.0923889E-1,-1.8186852E-1,1E0,-1.8404642E-1,5.8379926E-2,3.4726924E-1,-9.223255E-2,7.750046E-2,2.6392943E-1,5.94E1,-7.3112757E-3,-1.7268798E-1,2E0,-1.5355276E-1,4.3993004E-2,-6.047128E-2,5.4415524E-1,-1.5794817E-1,5E0,1.6807E1,5.992E1,-1.8430994E-1,9.8830366E-1,6E1,7.9770833E-1,8.681998E-1,-1.8249434E-1,-9.13131E-2,-1.8114713E-1,-1.0930111E-1,-7.523489E-2,7.16E0,-3.427E0,9.889508E-1,1.3129558E-1,1.4475547E-1,2.066E0,3.0761918E-1,8.202781E-2,9.364643E-1,7.838876E-3,6.9904186E-2,5.3268E-1,3.1770834E-1,5.717808E-1,1.7176105E-1,2.8837088E-1,7.208667E-2,-1.715E0,1E0,2.6392943E-1,7.4181736E-2,1.0614E4,5.3241235E-1,-1E-5,-1.763833E-1,-1.8254586E-1,8.367116E-1,1.4219905E-1,1E0,-7.495395E-3,-1.4764832E-1,6.61579E-2,3.1425196E-3,4.89E-1,2.8458642E-2,5.99E0,-1.0156654E-1,1.954E0,-1.8459585E-1,8.054112E-2,3.5292838E-2,2.2840711E-1,7.5094804E-2,1.1818E-1,2.14E1,1.8740189E-1,6.5368533E-1,3.33068E0,-1.18259914E-1,-1.7513761E-1,-3.336867E-2,1.2933E1,6.7385525E-1,6.8718094E-1,-1.6769232E-1,-0E0,5.5524554E-2,-4.329321E-2,6.63E1,7.969837E-2,3.615617E-2,2.9627424E-1,3.3715516E-1,9.4527525E-1,2.4478644E-1,-9.257175E-2,-5.454033E-3,-1.5876326E-1,-6.784432E-2,9.132155E-1,8.004516E-1,3.8982887E-2,-1.8269124E-2,-1.7872843E-1,-7.350064E-2,-9.695859E-2,-1.767794E-1,-9.3258575E-2,7.936666E-2,-6.9287434E-2,-1.548085E-1,-1.661087E-1,-1.8071337E-1,-1.5475409E-1,-6.298621E-2,-1.3842466E-1,1.9579746E-2,-1.0179244E-1,-1.7757376E-1,-8.4270604E-2,-1.6174217E-1,-1.8167037E-1,-1.7737404E-1,-4.6519995E-2,-1.6500905E-1,-2.3351382E-3,-1.3959673E-1,-7.710409E-2,-1.609429E-1,-1.8196858E-1,-8.247298E-2,2.3958826E-2,-1.7897712E-1,-6.54043E-2,-1.5575929E-1,7.900309E-2,4.733123E-3,-2.2153659E-2,-1.7957148E-1,-5.378448E-2,-1.710142E-1,-1.1850185E-1,2.4508623E-2,-1.0238454E-1,-1.8086886E-1,-1.1117619E-1,-1.7551652E-1,-1.0518346E-1,2.155868E-2,-1.3090596E-1,-1.8328801E-1,5.603702E-2,-6.411866E-2,-1.5795883E-2,-1.7886434E-1,7.0012696E-2,6.6014146E-3,7.055521E-2,4.2934385E-3,2.7569883E-2,-6.5685295E-2,4.986946E-2,7.395067E-2,-1.5480381E-1,-1.8157467E-2,-5.416707E-2,7.708616E-3,7.780545E-2,-7.9289125E-3,5.225599E-2,-2.935569E-2],"split_indices":[55,143,33,75,65,143,88,140,0,136,33,56,9,13,9,143,0,65,124,143,88,136,58,105,143,132,74,124,132,22,0,33,136,28,96,136,109,13,140,88,43,124,143,143,0,88,65,58,74,58,132,0,0,136,55,140,0,0,136,143,136,136,0,43,132,0,0,143,88,135,3,0,0,133,0,88,0,140,6,141,143,54,58,133,55,0,13,6,55,124,124,0,74,0,0,0,0,0,13,0,0,0,30,143,54,0,33,136,96,124,58,0,0,0,0,13,0,0,136,0,0,143,55,0,0,65,0,81,0,124,0,74,54,55,0,133,55,135,124,0,0,0,0,0,58,56,124,140,140,54,141,0,124,0,0,22,135,124,143,143,136,56,9,143,133,75,143,38,0,0,124,135,95,0,0,0,0,54,0,58,0,54,0,0,0,135,0,9,54,133,143,43,0,0,0,54,136,140,0,0,0,0,74,0,0,143,140,124,132,0,0,0,0,132,136,0,0,0,0,0,0,0,0,0,0,0,0,0,0,0,0,0,0,0,0,0,0,0,0,0,0,0,0,0,0,0,0,0,0,0,0,0,0,0,0,0,0,0,0,0,0,0,0,0,0,0,0,0,0,0,0,0,0,0,0,0,0,0,0,0,0,0,0,0,0],"split_type":[0,0,0,0,0,0,0,0,0,0,0,0,0,0,0,0,0,0,0,0,0,0,0,0,0,0,0,0,0,0,0,0,0,0,0,0,0,0,0,0,0,0,0,0,0,0,0,0,0,0,0,0,0,0,0,0,0,0,0,0,0,0,0,0,0,0,0,0,0,0,0,0,0,0,0,0,0,0,0,0,0,0,0,0,0,0,0,0,0,0,0,0,0,0,0,0,0,0,0,0,0,0,0,0,0,0,0,0,0,0,0,0,0,0,0,0,0,0,0,0,0,0,0,0,0,0,0,0,0,0,0,0,0,0,0,0,0,0,0,0,0,0,0,0,0,0,0,0,0,0,0,0,0,0,0,0,0,0,0,0,0,0,0,0,0,0,0,0,0,0,0,0,0,0,0,0,0,0,0,0,0,0,0,0,0,0,0,0,0,0,0,0,0,0,0,0,0,0,0,0,0,0,0,0,0,0,0,0,0,0,0,0,0,0,0,0,0,0,0,0,0,0,0,0,0,0,0,0,0,0,0,0,0,0,0,0,0,0,0,0,0,0,0,0,0,0,0,0,0,0,0,0,0,0,0,0,0,0,0,0,0,0,0,0,0,0,0,0,0,0,0,0,0,0,0,0,0,0,0,0,0,0,0,0,0],"sum_hessian":[1.4410584E5,4.4166023E4,9.993983E4,3.2085398E3,4.0957484E4,8.841713E3,9.109811E4,2.8569265E3,3.5161325E2,3.863513E4,2.3223542E3,6.867558E3,1.974155E3,9.085732E4,2.40789E2,2.7978745E3,5.9051968E1,4.0224902E3,3.461264E4,6.6222314E2,1.660131E3,5.293981E2,6.33816E3,1.1870776E3,7.870774E2,8.278321E3,8.2579E4,5.7746586E1,1.8304242E2,2.4054366E2,2.557331E3,6.70389E2,3.3521013E3,3.4309848E4,3.0279163E2,1.3093596E2,5.3128723E2,1.6174305E3,4.2700493E1,1.2807695E2,4.0132114E2,4.908057E2,5.847354E3,1.1738677E3,1.3209937E1,6.070444E2,1.8003305E2,7.4380767E3,8.402441E2,8.255564E4,2.3361591E1,1.3673326E1,4.407326E1,3.3957943E1,1.4908447E2,8.753179E1,1.5301187E2,2.2456038E2,4.4582858E2,2.7008672E3,6.51234E2,3.429813E4,1.1719759E1,2.6794083E2,3.485082E1,1.2666624E1,1.18269325E2,2.6455768E2,2.6672955E2,5.026666E1,1.5671638E3,2.4467596E1,1.8232899E1,8.6892E1,4.1184948E1,2.4975998E1,3.7634515E2,1.1744178E2,3.733639E2,1.1252861E3,4.7220684E3,2.842508E2,8.8961694E2,5.1750745E2,8.953692E1,2.1624975E1,1.5840807E2,5.3034794E1,7.385042E3,7.067347E2,1.3350938E2,1.428098E1,8.254136E4,1.1655525E1,1.1706067E1,1.7767757E1,1.6190186E1,1.4115914E1,1.3496855E2,1.4747627E1,7.2784164E1,3.2397073E2,1.2185788E2,9.6276373E2,1.7381035E3,7.359656E1,5.7763745E2,2.2328796E3,3.2065248E4,6.879619E1,1.9914462E2,2.319536E1,1.1655458E1,1.6594707E1,2.4796297E2,1.8857748E2,7.815206E1,1.6595499E1,3.3671158E1,1.3516173E1,1.5536477E3,3.94838E1,4.74082E1,1.24211035E1,1.2554895E1,8.813747E1,2.9304314E1,3.5469046E2,1.867343E1,1.1029597E3,2.2326416E1,5.0509875E2,4.216969E3,1.7996555E2,1.0428526E2,8.61689E2,2.7927876E1,4.2915173E2,8.83557E1,7.474135E1,1.4795568E1,1.4068103E2,1.7727037E1,1.8420324E1,3.4614468E1,2.497919E2,7.13525E3,4.8374957E2,2.229851E2,3.5207306E1,9.8302086E1,8.21264E4,4.1496283E2,1.5879803E1,1.1908876E2,9.15102E1,3.034768E1,4.5473474E2,5.0802902E2,2.1899945E2,1.5191041E3,3.297777E2,2.4785976E2,1.855451E3,3.7742853E2,3.162099E4,4.4425903E2,5.4806965E1,1.3989221E1,8.644736E1,1.12697266E2,6.3221718E1,1.2535576E2,1.2411306E1,2.1259851E1,2.4295073E1,1.5188726E1,3.0360226E1,1.7047976E1,7.5535126E1,1.2602336E1,1.0918046E2,2.4551001E2,1.0786663E3,2.42934E1,3.8461923E2,1.2047954E2,4.0926582E3,1.2431122E2,9.3851135E1,8.61144E1,8.3881006E2,2.2878979E1,1.5851589E1,1.2076287E1,3.979168E2,3.1234924E1,3.3042202E1,5.53135E1,1.1019541E1,2.3594927E1,1.2197147E1,2.3759476E2,7.1039414E3,3.1308653E1,6.010326E1,4.2364633E2,6.84671E1,1.54518E2,1.3810868E1,2.1396439E1,8.24307E1,1.5871378E1,3.7814264E2,3.6820175E1,5.2497055E1,3.901314E1,1.3226795E1,1.7120884E1,2.9987648E1,4.247471E2,4.6977383E2,3.825517E1,2.6904829E1,1.9209462E2,4.536508E2,1.0654532E3,2.829473E2,4.6830402E1,1.310185E2,1.16841255E2,6.2533604E1,1.7929175E3,1.82267E2,1.9516153E2,1.016059E4,2.14604E4,2.7700417E1,4.1655862E2,4.1960026E1,1.2846939E1,2.8238369E1,8.44589E1,4.0332207E1,2.2889511E1,1.0857374E2,1.678202E1,1.1473472E1,1.8886753E1,3.5135296E1,4.039983E1,1.9365034E1,8.981542E1,1.351152E2,2.4950403E2,1.7241658E2,3.9202417E3,2.5734152E1,9.8577065E1,1.899628E1,7.485486E1,4.8984367E1,3.7130035E1,3.319898E1,8.056111E2,3.8347736E2,1.4439461E1,1.2660091E1,1.8574833E1,1.8503592E1,1.4538611E1,2.2331058E2,1.428418E1,3.0062134E1,3.0041124E1,1.9649176E2,2.2715456E2,2.389258E1,4.4574524E1,1.6390556E1,1.3812744E2,3.6670975E2,1.1432898E1,2.1691332E1,1.5128844E1],"tree_param":{"num_deleted":"0","num_feature":"147","num_nodes":"285","size_leaf_vector":"1"}},{"base_weights":[6.825455E-2,-1.9989794E0,1.2841443E0,8.121633E-2,-2.2592223E0,1.3097268E0,-1.1686598E0,-2.5196006E0,-6.90622E-1,1.3157445E0,-6.803421E-1,1.1624308E0,-2.2436E0,1.1263858E0,-2.5687366E0,1.1281925E0,-1.1593294E0,9.908349E-1,1.3265828E0,-2.050243E0,2.2892348E-1,8.010466E-2,8.2397103E-1,-1.571221E0,-2.4629638E0,5.255554E-1,7.8383975E-2,-1.7799487E0,-2.6094909E0,8.2473737E-1,8.085521E-2,-1.6267391E0,3.3314514E-1,-4.7576183E-1,1.1178308E0,1.3269141E0,-1.3686885E-2,-7.050621E-1,-2.5143142E0,-1.933055E0,9.260881E-1,2.2990683E-1,6.433839E-2,-6.099806E-1,-1.8461471E0,-0E0,-2.5270305E0,-2.2520643E-2,6.5014E-1,-6.5408367E-1,-2.2552817E0,-2.25691E0,-2.6418076E0,1.2420663E0,2.4469587E-1,-7.5391525E-1,-2.0092525E0,7.004255E-1,-1.4178097E0,8.296065E-1,-1.1982589E0,1.2214599E0,6.0329336E-1,4.622172E-1,1.3274045E0,-1.3538797E-1,2.3815146E-2,-1.03901625E-1,-1.6810958E-1,-1.6281772E-1,-3.7199676E-2,-2.1458722E-3,1.0843931E0,-4.5670707E-2,5.9904654E-2,-1.553983E-1,1.7933047E-1,-1.5672354E-1,-1.0362742E0,-5.9857182E-2,-2.5773861E0,4.8309796E-2,-2.252673E-2,1.0041538E0,-1.4127452E0,-6.1326295E-1,-2.3502014E0,-9.436208E-1,-2.5412562E0,-2.3333342E0,-2.663959E0,7.7895574E-2,3.6988527E-2,-5.262285E-1,1.0059599E0,-2.7921417E-1,-1.6116746E-1,-1.2115169E0,-2.2693014E0,7.8256136E-1,-1.7930152E0,4.33931E-1,-2.0490742E0,7.457937E-2,-1.0359496E-2,-8.4903854E-1,-1.6058443E-1,-1.07826374E-1,1.2419661E0,1.3596822E-1,9.770427E-1,5.347604E-2,-4.6063006E-2,1.0563297E0,1.328862E0,7.362508E-2,3.0635044E-2,-1.41305765E-2,5.208755E-2,5.533767E-2,-2.026768E0,-8.066362E-2,-2.62221E0,-8.202848E-1,8.068672E-2,-9.092784E-1,-1.6547312E-1,1.8868975E-1,-1.5996328E-1,-8.0659E-1,-2.4343998E0,7.45645E-2,-1.36777E0,-2.6699288E0,-1.7019501E0,-2.3404644E0,-4.5686815E-2,-2.4579885E0,-2.6742218E0,6.337997E-2,-1.337639E0,6.9008395E-2,-6.426958E-3,-1.5653744E-1,3.477265E-1,-1.917636E0,-9.234386E-2,1.756323E-2,-2.316816E0,-1.1502786E0,8.735256E-1,-7.7328878E-3,-1.5964817E-1,1.49375675E-2,7.2762705E-2,-2.3945994E0,-8.704953E-1,-1.6383205E-1,-5.5720353E-1,-4.676002E-2,3.4948904E-2,7.862956E-2,1.0877545E0,9.304319E-1,-2.6031336E-1,7.869052E-2,7.259936E-1,-4.232717E-2,1.1409271E0,1.2769768E0,1.334943E0,3.9907422E-2,-4.01326E-2,-1.5936811E-1,-5.8162916E-2,-1.60831E-1,-9.531872E-2,7.213989E-2,-1.4434156E-1,-1.5025459E-1,-3.1511314E-2,-4.050751E-2,7.236226E-2,3.0642085E-2,-1.2454352E-1,-1.2734129E-1,-1.5524252E-1,-8.760715E-2,5.5230822E-2,-5.3956598E-2,-1.6140406E-1,-1.4443001E-1,-5.7188433E-2,-1.385031E-1,-1.5776786E-1,-1.5072797E-1,-5.278259E-3,-1.5701672E-1,-1.6151103E-1,-1.1020811E-1,-1.8523904E-2,3.011914E-2,-6.608581E-2,-1.449859E-1,-2.860343E-4,1.959905E-2,-7.6180205E-2,-6.349476E-2,3.4943115E-2,-1.3126053E-1,-1.6492438E-1,2.9876944E-2,-1.2334736E-1,1.6390911E-3,6.1800048E-2,4.4985037E-2,-2.4139116E-2,-1.06989816E-1,-1.5947434E-1,-1.1779688E-1,-1.0339533E-2,-7.329637E-2,-0E0,-1.8376926E-2,6.927499E-2,6.809994E-2,1.0471248E-2,-7.696348E-2,1.781514E-2,-7.628411E-2,5.486678E-2,7.245825E-2,-6.2150452E-2,7.726215E-2,3.7585743E-2,6.121576E-2,8.038161E-2],"categories":[],"categories_nodes":[],"categories_segments":[],"categories_sizes":[],"default_left":[0,0,0,0,1,0,0,0,0,0,0,0,0,0,0,0,0,0,1,0,1,0,0,0,0,0,0,0,0,0,0,0,0,0,1,0,0,0,0,1,0,1,0,0,0,0,0,0,0,0,0,0,0,0,0,0,0,0,0,1,1,0,0,0,0,0,0,0,0,0,0,0,0,0,0,0,0,0,0,0,0,0,0,1,0,0,0,0,0,1,0,0,0,0,0,0,0,1,0,0,0,1,1,0,0,0,0,0,0,0,0,0,0,1,1,0,0,0,0,0,0,0,1,0,0,0,0,0,0,0,0,0,0,0,0,0,0,0,0,0,0,0,0,0,0,0,0,0,0,0,0,0,0,0,0,0,0,0,0,0,0,0,0,0,0,0,0,0,0,0,0,0,0,0,0,0,0,0,0,0,0,0,0,0,0,0,0,0,0,0,0,0,0,0,0,0,0,0,0,0,0,0,0,0,0,0,0,0,0,0,0,0,0,0,0,0,0,0,0,0,0,0,0,0,0,0,0,0,0,0,0,0,0,0,0,0,0],"id":2,"left_children":[1,3,5,-1,7,9,11,13,15,17,19,21,23,25,27,29,31,33,35,37,39,-1,41,43,45,47,-1,49,51,53,-1,55,57,59,61,63,-1,65,67,69,71,73,-1,75,77,-1,79,-1,81,83,85,87,89,91,93,95,97,99,101,103,105,107,109,111,113,-1,-1,-1,-1,-1,-1,-1,115,-1,-1,-1,117,-1,119,-1,121,-1,-1,123,125,127,129,131,133,135,137,-1,-1,139,141,143,-1,145,147,149,151,153,155,-1,-1,157,-1,159,161,163,165,-1,-1,167,169,-1,-1,-1,-1,171,173,-1,175,177,-1,179,-1,181,-1,183,185,-1,187,189,191,193,-1,195,197,-1,199,-1,-1,-1,201,203,205,207,209,211,213,-1,-1,215,-1,217,219,-1,221,-1,-1,-1,223,225,227,-1,229,-1,231,233,235,-1,-1,-1,-1,-1,-1,-1,-1,-1,-1,-1,-1,-1,-1,-1,-1,-1,-1,-1,-1,-1,-1,-1,-1,-1,-1,-1,-1,-1,-1,-1,-1,-1,-1,-1,-1,-1,-1,-1,-1,-1,-1,-1,-1,-1,-1,-1,-1,-1,-1,-1,-1,-1,-1,-1,-1,-1,-1,-1,-1,-1,-1,-1,-1,-1,-1],"loss_changes":[3.5853878E5,4.603236E4,5.6364844E3,0E0,2.0014281E4,1.0658281E3,2.324016E3,7.5341875E3,5.9502803E3,3.0775E2,3.3615997E2,1.2622589E1,8.576196E1,5.5637634E1,1.3248438E3,8.922217E1,3.874253E3,5.351909E2,4.6140625E1,6.102951E1,2.3973929E2,0E0,1.2345062E1,3.7373047E1,7.761597E1,1.4994644E1,0E0,1.0866226E3,4.3959375E2,1.4174994E2,0E0,1.4062734E3,8.496902E2,2.15389E2,1.3738428E2,3.3078125E1,0E0,5.23622E1,8.406342E0,3.2852325E1,2.0393066E1,2.4623968E1,0E0,6.1888638E1,6.779462E1,0E0,2.9065186E1,0E0,1.878413E1,7.6479016E2,2.1794238E2,1.232166E3,2.3682812E2,7.7373047E0,1.4864226E2,1.1723823E3,6.027959E2,2.2263849E2,2.7025284E2,3.4844997E1,6.899629E1,6.1833008E1,7.586134E1,2.6984592E1,2.940625E1,0E0,0E0,0E0,0E0,0E0,0E0,0E0,5.2946243E0,0E0,0E0,0E0,8.522514E0,0E0,6.8714874E1,0E0,1.7220947E1,0E0,0E0,1.1765506E2,2.738343E2,1.3496426E2,1.6991455E2,5.4834454E2,2.8578516E2,2.1438477E1,6.0953125E1,0E0,0E0,1.5966429E2,2.1834442E1,1.5110887E3,0E0,5.688297E2,2.4460742E2,1.8614441E2,4.4043945E1,1.6525269E1,6.3575317E1,0E0,0E0,5.9686096E1,0E0,1.5259238E1,1.6927979E1,6.431576E1,1.658458E1,0E0,0E0,7.023535E1,2.1953125E1,0E0,0E0,0E0,0E0,1.23734865E1,1.4516129E1,0E0,1.3894531E1,9.457066E1,0E0,1.8076315E2,0E0,5.062881E1,0E0,1.2155435E2,4.983203E1,0E0,1.0053497E2,4.081836E1,1.8487317E2,1.6998047E1,0E0,1.7070605E2,8.03125E0,0E0,3.8144226E1,0E0,0E0,0E0,1.7882837E2,4.118734E2,1.396957E2,2.6134739E1,1.15231445E2,7.230264E1,1.2949585E2,0E0,0E0,1.25578165E1,0E0,1.1911133E1,2.6751635E1,0E0,3.9677998E1,0E0,0E0,0E0,5.8226807E1,8.023735E0,7.677552E1,0E0,5.243299E1,0E0,6.1289673E1,3.4697266E1,4.796875E0,0E0,0E0,0E0,0E0,0E0,0E0,0E0,0E0,0E0,0E0,0E0,0E0,0E0,0E0,0E0,0E0,0E0,0E0,0E0,0E0,0E0,0E0,0E0,0E0,0E0,0E0,0E0,0E0,0E0,0E0,0E0,0E0,0E0,0E0,0E0,0E0,0E0,0E0,0E0,0E0,0E0,0E0,0E0,0E0,0E0,0E0,0E0,0E0,0E0,0E0,0E0,0E0,0E0,0E0,0E0,0E0,0E0,0E0,0E0,0E0,0E0,0E0,0E0,0E0,0E0,0E0],"parents":[2147483647,0,0,1,1,2,2,4,4,5,5,6,6,7,7,8,8,9,9,10,10,11,11,12,12,13,13,14,14,15,15,16,16,17,17,18,18,19,19,20,20,22,22,23,23,24,24,25,25,27,27,28,28,29,29,31,31,32,32,33,33,34,34,35,35,37,37,38,38,39,39,40,40,41,41,43,43,44,44,46,46,48,48,49,49,50,50,51,51,52,52,53,53,54,54,55,55,56,56,57,57,58,58,59,59,60,60,61,61,62,62,63,63,64,64,72,72,76,76,78,78,80,80,83,83,84,84,85,85,86,86,87,87,88,88,89,89,90,90,93,93,94,94,95,95,97,97,98,98,99,99,100,100,101,101,102,102,105,105,107,107,108,108,109,109,110,110,113,113,114,114,119,119,120,120,122,122,123,123,125,125,127,127,129,129,130,130,132,132,133,133,134,134,135,135,137,137,138,138,140,140,144,144,145,145,146,146,147,147,148,148,149,149,150,150,153,153,155,155,156,156,158,158,162,162,163,163,164,164,166,166,168,168,169,169,170,170],"right_children":[2,4,6,-1,8,10,12,14,16,18,20,22,24,26,28,30,32,34,36,38,40,-1,42,44,46,48,-1,50,52,54,-1,56,58,60,62,64,-1,66,68,70,72,74,-1,76,78,-1,80,-1,82,84,86,88,90,92,94,96,98,100,102,104,106,108,110,112,114,-1,-1,-1,-1,-1,-1,-1,116,-1,-1,-1,118,-1,120,-1,122,-1,-1,124,126,128,130,132,134,136,138,-1,-1,140,142,144,-1,146,148,150,152,154,156,-1,-1,158,-1,160,162,164,166,-1,-1,168,170,-1,-1,-1,-1,172,174,-1,176,178,-1,180,-1,182,-1,184,186,-1,188,190,192,194,-1,196,198,-1,200,-1,-1,-1,202,204,206,208,210,212,214,-1,-1,216,-1,218,220,-1,222,-1,-1,-1,224,226,228,-1,230,-1,232,234,236,-1,-1,-1,-1,-1,-1,-1,-1,-1,-1,-1,-1,-1,-1,-1,-1,-1,-1,-1,-1,-1,-1,-1,-1,-1,-1,-1,-1,-1,-1,-1,-1,-1,-1,-1,-1,-1,-1,-1,-1,-1,-1,-1,-1,-1,-1,-1,-1,-1,-1,-1,-1,-1,-1,-1,-1,-1,-1,-1,-1,-1,-1,-1,-1,-1,-1],"split_conditions":[9E0,1E0,3.2799E1,8.121633E-2,0E0,1E0,4.796968E-1,1.2966336E-1,2.1304016E-1,1.1E1,-5.38E-1,3.7013936E-1,4.79202E0,1.4509827E-2,3.733328E-1,3E0,5E0,-7.15E-1,8.9E1,3.63429E0,1.4554243E-1,8.010466E-2,3.2593387E-1,4.727774E-1,3.7875795E-1,5.526977E-3,7.8383975E-2,6.93191E0,2.2103706E-1,2.2916275E-1,8.085521E-2,4.3093598E-1,8.9064294E-1,5.1503044E-1,5.878979E-2,3.76E1,-1.3686885E-2,-2.739E0,7.46366E0,6.31921E0,3.0194804E-1,1.4045694E-1,6.433839E-2,1.985E2,5.351724E-1,-0E0,3.40914E0,-2.2520643E-2,6.2734216E-1,3.7013936E-1,3.2879665E-1,4.0684584E-1,1.9898252E-1,7.437556E-1,2.9463512E-1,9.3029886E-1,4.9649218E-1,1E0,8E0,7.0056096E-2,-1E-5,2.517E-1,1E0,2.227E-3,-3.92E0,-1.3538797E-1,2.3815146E-2,-1.03901625E-1,-1.6810958E-1,-1.6281772E-1,-3.7199676E-2,-2.1458722E-3,1.07656E1,-4.5670707E-2,5.9904654E-2,-1.553983E-1,2.9300457E-1,-1.5672354E-1,8.437561E-1,-5.9857182E-2,5.056696E-1,4.8309796E-2,-2.252673E-2,7.208667E-2,1E0,1E0,5.23675E0,2.9744527E-1,2.0791256E-1,-8.83E-1,7.437556E-1,7.7895574E-2,3.6988527E-2,1.0100662E-1,7.872778E-1,2.25094E-1,-1.6116746E-1,3.5701215E-2,1.163795E-1,1E0,5.1167953E-1,6.14E1,3.2243576E-2,7.457937E-2,-1.0359496E-2,-1.225E0,-1.6058443E-1,2.0791256E-1,5.273282E-1,5.4763776E-1,5.075617E-1,5.347604E-2,-4.6063006E-2,3.5456E-5,1.13549866E-1,7.362508E-2,3.0635044E-2,-1.41305765E-2,5.208755E-2,7.215221E-1,1E0,-8.066362E-2,3.51E1,1.9898252E-1,8.068672E-2,3E0,-1.6547312E-1,6.737976E-1,-1.5996328E-1,4.6788856E-1,4.680289E-1,7.45645E-2,7E0,4.37632E-1,7E0,4.727774E-1,-4.5686815E-2,1E0,9.64763E0,6.337997E-2,2.9944256E-1,6.9008395E-2,-6.426958E-3,-1.5653744E-1,5E-3,5.980162E-1,2.656319E-1,1.9254552E-1,2.0166E1,4.5747587E-1,2.6547998E-1,-7.7328878E-3,-1.5964817E-1,6.0140455E-1,7.2762705E-2,4.10723E0,7.028106E-1,-1.6383205E-1,3.35E1,-4.676002E-2,3.4948904E-2,7.862956E-2,1.04211636E-1,7.616482E-1,1.4554243E-1,7.869052E-2,1.6799328E-1,-4.232717E-2,1.90002E1,9.833983E-1,1.876E-3,3.9907422E-2,-4.01326E-2,-1.5936811E-1,-5.8162916E-2,-1.60831E-1,-9.531872E-2,7.213989E-2,-1.4434156E-1,-1.5025459E-1,-3.1511314E-2,-4.050751E-2,7.236226E-2,3.0642085E-2,-1.2454352E-1,-1.2734129E-1,-1.5524252E-1,-8.760715E-2,5.5230822E-2,-5.3956598E-2,-1.6140406E-1,-1.4443001E-1,-5.7188433E-2,-1.385031E-1,-1.5776786E-1,-1.5072797E-1,-5.278259E-3,-1.5701672E-1,-1.6151103E-1,-1.1020811E-1,-1.8523904E-2,3.011914E-2,-6.608581E-2,-1.449859E-1,-2.860343E-4,1.959905E-2,-7.6180205E-2,-6.349476E-2,3.4943115E-2,-1.3126053E-1,-1.6492438E-1,2.9876944E-2,-1.2334736E-1,1.6390911E-3,6.1800048E-2,4.4985037E-2,-2.4139116E-2,-1.06989816E-1,-1.5947434E-1,-1.1779688E-1,-1.0339533E-2,-7.329637E-2,-0E0,-1.8376926E-2,6.927499E-2,6.809994E-2,1.0471248E-2,-7.696348E-2,1.781514E-2,-7.628411E-2,5.486678E-2,7.245825E-2,-6.2150452E-2,7.726215E-2,3.7585743E-2,6.121576E-2,8.038161E-2],"split_indices":[79,79,54,0,56,88,144,144,144,79,56,144,43,146,120,79,79,56,5,43,127,0,127,143,146,141,0,43,136,146,0,146,146,144,131,34,0,56,41,41,120,133,0,34,133,0,41,0,127,144,146,144,144,120,142,141,144,88,79,127,14,15,96,3,56,0,0,0,0,0,0,0,44,0,0,0,136,0,144,0,144,0,0,136,88,88,41,144,136,56,120,0,0,141,141,144,0,136,143,9,146,34,127,0,0,57,0,136,146,144,143,0,0,9,127,0,0,0,0,143,96,0,25,144,0,79,0,127,0,143,144,0,79,144,79,143,0,96,41,0,146,0,0,0,56,121,141,120,54,143,131,0,0,144,0,41,121,0,21,0,0,0,136,146,127,0,141,0,43,136,3,0,0,0,0,0,0,0,0,0,0,0,0,0,0,0,0,0,0,0,0,0,0,0,0,0,0,0,0,0,0,0,0,0,0,0,0,0,0,0,0,0,0,0,0,0,0,0,0,0,0,0,0,0,0,0,0,0,0,0,0,0,0,0,0,0,0],"split_type":[0,0,0,0,0,0,0,0,0,0,0,0,0,0,0,0,0,0,0,0,0,0,0,0,0,0,0,0,0,0,0,0,0,0,0,0,0,0,0,0,0,0,0,0,0,0,0,0,0,0,0,0,0,0,0,0,0,0,0,0,0,0,0,0,0,0,0,0,0,0,0,0,0,0,0,0,0,0,0,0,0,0,0,0,0,0,0,0,0,0,0,0,0,0,0,0,0,0,0,0,0,0,0,0,0,0,0,0,0,0,0,0,0,0,0,0,0,0,0,0,0,0,0,0,0,0,0,0,0,0,0,0,0,0,0,0,0,0,0,0,0,0,0,0,0,0,0,0,0,0,0,0,0,0,0,0,0,0,0,0,0,0,0,0,0,0,0,0,0,0,0,0,0,0,0,0,0,0,0,0,0,0,0,0,0,0,0,0,0,0,0,0,0,0,0,0,0,0,0,0,0,0,0,0,0,0,0,0,0,0,0,0,0,0,0,0,0,0,0,0,0,0,0,0,0,0,0,0,0,0,0,0,0,0,0,0,0],"sum_hessian":[1.4264373E5,5.2826867E4,8.981687E4,3.809389E3,4.9017477E4,8.8890555E4,9.2631433E2,4.2038156E4,6.979323E3,8.862352E4,2.6703632E2,2.9182086E2,6.344935E2,5.584702E2,4.1479684E4,1.4292198E3,5.5501035E3,2.8666697E3,8.575685E4,1.0721316E2,1.5982315E2,1.9105473E2,1.0076613E2,1.5844038E2,4.760531E2,1.2883336E2,4.2963684E2,2.0403871E3,3.9439297E4,5.964684E2,8.3275146E2,4.227356E3,1.3227476E3,2.2730045E2,2.6393691E3,8.5739734E4,1.7114454E1,2.859763E1,7.861553E1,3.827184E1,1.21551315E2,3.161995E1,6.914618E1,3.6800476E1,1.21639915E2,1.1687451E1,4.6436566E2,1.390122E1,1.1493214E2,6.0694653E2,1.4334406E3,3.3170962E3,3.6122203E4,3.4499356E2,2.5147481E2,1.2896932E3,2.9376626E3,1.0943236E3,2.2842401E2,8.010323E1,1.471972E2,2.1938354E3,4.4553378E2,5.0740215E1,8.568899E4,1.2487226E1,1.6110405E1,2.2526604E1,5.6088924E1,2.3146988E1,1.5124849E1,1.5624654E1,1.0592667E2,1.2790849E1,1.8829102E1,1.1037822E1,2.5762653E1,6.1514343E1,6.012557E1,1.6011028E1,4.4835464E2,1.0158333E2,1.3348809E1,1.8977026E2,4.1717627E2,7.942742E1,1.3540132E3,5.916247E2,2.7254717E3,2.426836E3,3.3695367E4,3.158334E2,2.9160162E1,1.23821594E2,1.2765321E2,1.0353145E3,2.5437883E2,7.241349E2,2.2135276E3,1.060236E3,3.4087585E1,5.737728E1,1.7104672E2,5.8085136E1,2.20181E1,1.2014315E2,2.7054054E1,3.2009087E1,2.1618262E3,2.0019542E2,2.4533836E2,3.8770084E1,1.1970129E1,4.6546335E2,8.522353E4,8.271328E1,2.3213385E1,1.4538009E1,1.1224645E1,2.7839813E1,3.2285755E1,1.7254297E1,4.3110034E2,2.8672256E1,1.61098E2,3.041928E2,1.1298345E2,5.654941E1,2.287801E1,7.1224E1,1.2827892E3,9.553897E1,4.9608572E2,2.3609966E3,3.6447495E2,2.414687E3,1.2148853E1,1.609556E3,3.2085809E4,4.1271034E1,8.255056E1,1.147519E2,1.2901314E1,2.206361E2,8.1467834E2,4.429518E2,2.811831E2,4.4300934E1,2.1692268E3,4.6683628E1,1.01355237E3,1.2377414E1,2.1710173E1,3.884302E1,1.8534262E1,1.309605E2,4.008624E1,1.5171815E1,1.0497134E2,1.7521873E1,1.4487214E1,1.5169448E3,6.448815E2,6.8022964E1,1.3217245E2,1.0258732E2,1.4275105E2,2.0332714E1,4.451306E2,8.975279E3,7.624825E4,1.6453587E1,1.1386227E1,1.913811E1,1.3147647E1,4.095627E2,2.1537638E1,1.2106676E1,1.656558E1,5.8397648E1,2.4579517E2,2.9656721E1,2.6892693E1,3.424673E1,3.6977264E1,4.0474164E2,8.780475E2,4.7858438E2,1.7501348E1,1.6115044E1,2.3448816E3,1.8766493E2,1.7681001E2,2.1228618E3,2.9182513E2,1.5782068E3,3.1349272E1,3.8323967E3,2.8253412E4,5.456277E1,2.7987793E1,7.380953E2,7.658308E1,3.517173E2,9.123452E1,2.0631749E2,7.486562E1,1.4113822E1,3.018711E1,1.6446523E3,5.2457434E2,1.5820778E1,3.0862852E1,1.5708163E2,8.5647076E2,1.5552452E1,2.3290567E1,4.0711456E1,9.024903E1,1.4568796E1,2.5517443E1,4.859555E1,5.6375782E1,2.6685549E1,6.181959E2,5.183315E1,1.618981E1,4.773068E1,8.444177E1,1.1248214E1,1.3150284E2,4.3350665E2,1.1623974E1,8.883571E3,9.17077E1,9.7146965E1,7.615111E4],"tree_param":{"num_deleted":"0","num_feature":"147","num_nodes":"237","size_leaf_vector":"1"}},{"base_weights":[6.9741085E-2,-1.8274163E0,1.2575098E0,7.9586074E-2,-2.0587075E0,-1.06001E0,1.2827916E0,1.2284936E0,-2.1468587E0,1.0972917E0,-2.023116E0,-7.1442115E-1,1.2853769E0,5.402403E-1,7.867059E-2,-2.3612344E0,-1.3905042E0,7.850289E-2,6.680905E-1,-5.5008143E-1,-2.2609675E0,-1.5295889E0,8.547526E-1,9.494155E-1,1.2965393E0,7.0080465E-1,-6.2907554E-2,-2.0106275E0,-2.389789E0,-1.8234588E0,-3.851973E-1,1.0019776E-1,5.7193197E-2,-1.3387667E-1,4.935163E-1,4.6932504E-2,-2.3382287E0,-4.6802723E-1,-1.5305655E-1,4.016696E-3,6.859353E-2,1.1899096E0,5.791712E-1,1.2974573E0,-1.0211263E0,-1.8346684E-2,5.0636657E-2,-8.3213663E-1,-2.2960846E0,-2.095935E0,-2.4115386E0,-9.592797E-1,-2.0255466E0,8.61695E-1,-9.0728074E-1,5.6644693E-2,-7.537105E-2,-1.4235919E-2,8.956673E-1,-1.6556661E0,-1.4381047E-1,1.0267326E-2,-8.6580515E-2,1.2118801E0,-6.3088976E-2,7.7644E-1,-6.6662943E-1,-4.084305E-2,1.2988952E0,9.512984E-4,-1.1336109E-1,7.4367076E-2,-1.2012584E0,-2.329743E0,-1.4280795E0,-2.1118917E0,3.5144795E-2,-2.4232347E0,-2.234698E0,-1.4939065E-1,-1.4722975E-1,-1.1747102E0,-2.1369348E0,1.0067314E0,-1.6140242E0,4.3571797E-1,-1.2170742E0,7.3876314E-2,3.5571933E-3,-1.4547522E-1,-1.7752593E-2,7.6258056E-2,1.0816262E0,-7.1718976E-2,5.8271572E-2,-8.353529E-2,8.1222975E-1,3.7996593E-1,-1.366723E0,3.1870314E-1,-1.569843E-1,9.999396E-1,1.300804E0,-1.3427466E0,3.8398454E-1,-2.3716788E0,-1.8296255E0,-0E0,-1.8523903E0,-2.1271691E0,-1.17201395E-2,-1.4616817E-1,-2.2489605E0,-2.498521E-1,-2.2839146E0,-2.2712046E-4,-1.4901377E-1,-3.296368E-1,-2.1569726E0,-1.9369528E0,-2.3094568E0,1.0472168E0,-1.07961774E-1,2.8377173E-2,-1.4930223E-1,-2.6423702E-1,1.0146484E0,-2.2910132E0,-8.929033E-1,-5.3003025E-1,1.1849962E0,7.879077E-2,6.789776E-1,-4.0308844E-2,8.5543185E-1,-0E0,-1.6536858E0,-6.368199E-1,6.383802E-2,-1.2536082E-1,1.074141E0,1.2087712E0,1.3049319E0,-8.8364035E-2,3.252673E-2,-7.8887325E-3,5.678526E-2,-1.433208E-1,-4.3486323E-2,-6.5448634E-2,-1.3790457E-1,-1.2824163E-1,-2.8649883E-2,-1.2611622E-1,-1.4525269E-1,-3.32466E-2,-1.3680995E-1,-1.46047E-1,2.3627752E-2,-4.0880423E-3,-1.3939571E-1,6.2474824E-2,-1.3943517E-2,-7.141602E-2,-1.651882E-3,-1.3532256E-1,-4.5084808E-2,-1.0159522E-1,-1.4059493E-1,-1.3961518E-1,-4.4854425E-2,7.517638E-2,4.035437E-2,6.660517E-2,-7.448915E-2,6.8755515E-2,3.7382232E-4,-1.4505358E-1,-9.867313E-2,-1.8867267E-2,-8.052593E-2,1.3162302E-3,-7.720272E-2,7.563164E-2,-0E0,-5.3018272E-2,4.463E-2,1.1575599E-2,6.7862E-2,-1.3484919E-1,-4.6594087E-2,-1.2367362E-1,2.1158697E-2,6.849613E-2,2.313447E-2,7.385707E-2,-3.196262E-2,5.4393943E-2,7.859633E-2],"categories":[],"categories_nodes":[],"categories_segments":[],"categories_sizes":[],"default_left":[0,0,1,0,0,0,0,0,1,0,0,1,0,0,0,0,0,0,1,0,0,0,0,0,0,0,0,0,0,0,0,0,0,0,1,0,0,0,0,0,0,1,0,0,0,0,0,0,1,0,1,0,0,0,0,0,0,0,0,0,0,0,0,0,0,0,0,1,0,0,0,0,1,0,0,0,0,1,0,0,0,0,1,1,0,0,0,0,0,0,0,0,0,0,0,0,0,0,0,0,0,0,1,0,0,1,0,0,0,0,0,0,0,0,0,0,0,0,0,0,1,0,0,0,0,0,0,0,0,0,0,0,0,0,0,0,0,0,0,0,0,0,0,0,0,0,0,0,0,0,0,0,0,0,0,0,0,0,0,0,0,0,0,0,0,0,0,0,0,0,0,0,0,0,0,0,0,0,0,0,0,0,0,0,0,0,0,0,0,0,0,0,0,0,0,0,0,0,0],"id":3,"left_children":[1,3,5,-1,7,9,11,13,15,17,19,21,23,25,-1,27,29,-1,31,33,35,37,39,41,43,45,-1,47,49,51,53,55,-1,-1,57,-1,59,61,-1,-1,-1,63,65,67,69,-1,-1,71,73,75,77,79,81,83,85,-1,-1,-1,87,89,-1,-1,-1,91,93,95,97,99,101,-1,-1,-1,103,105,107,109,-1,111,113,115,-1,117,119,121,123,125,127,-1,-1,-1,-1,-1,129,-1,-1,-1,131,133,135,137,-1,139,141,143,145,147,149,-1,151,153,-1,-1,155,157,159,161,-1,163,165,167,169,171,-1,-1,-1,173,175,177,179,181,183,-1,185,-1,187,-1,189,191,-1,-1,193,195,197,-1,-1,-1,-1,-1,-1,-1,-1,-1,-1,-1,-1,-1,-1,-1,-1,-1,-1,-1,-1,-1,-1,-1,-1,-1,-1,-1,-1,-1,-1,-1,-1,-1,-1,-1,-1,-1,-1,-1,-1,-1,-1,-1,-1,-1,-1,-1,-1,-1,-1,-1,-1,-1,-1,-1,-1],"loss_changes":[3.1665238E5,3.9414438E4,5.0640312E3,0E0,1.46075625E4,1.9383121E3,4.4257812E2,6.7618286E1,7.952E3,2.184784E1,2.2075854E2,1.4182947E2,3.1598438E2,3.4454502E1,0E0,3.7421875E2,4.7153125E3,0E0,1.3591465E1,1.6212262E2,1.3328125E2,7.3007416E1,6.1372967E0,2.4172607E2,1.7653125E2,1.8741692E1,0E0,9.650254E2,2.1707812E2,1.317707E3,2.1259634E3,3.8701527E1,0E0,0E0,1.750296E1,0E0,1.087207E1,2.5053043E1,0E0,0E0,0E0,4.787329E1,2.6734387E2,1.6117188E2,3.1958996E1,0E0,0E0,4.3085342E2,6.0578125E1,1.07424805E2,5.8875E1,1.7268176E3,5.755469E2,3.4495953E2,9.595571E2,0E0,0E0,0E0,8.089907E0,3.701422E1,0E0,0E0,0E0,7.3149414E0,3.2587475E1,7.195868E1,1.0985964E2,8.496996E1,4.2765625E1,0E0,0E0,0E0,1.0936224E2,3.8598633E1,5.316742E1,6.699805E1,0E0,1.7375E1,1.9604785E2,3.1897983E2,0E0,5.8730676E2,1.7889258E2,1.02240845E2,9.893768E1,1.7590422E2,6.458074E2,0E0,0E0,0E0,0E0,0E0,8.401074E1,0E0,0E0,0E0,5.7544983E1,2.9493683E1,3.744983E1,5.497636E1,0E0,1.1989484E2,2.6421875E1,1.0583197E2,1.2526287E1,2.5429688E1,5.412677E1,0E0,2.1406418E1,1.319043E1,0E0,0E0,2.9676758E1,7.4749626E1,1.367832E2,2.0921648E2,0E0,9.73849E1,3.653247E1,2.4245117E2,3.9166992E1,6.4696106E1,0E0,0E0,0E0,2.5893048E2,2.8472153E1,2.5577393E1,3.681128E2,1.4288201E1,4.1429382E1,0E0,7.120889E1,0E0,5.0792065E0,0E0,3.2915085E1,4.8589108E1,0E0,0E0,2.0021057E1,1.1321826E2,1.896875E1,0E0,0E0,0E0,0E0,0E0,0E0,0E0,0E0,0E0,0E0,0E0,0E0,0E0,0E0,0E0,0E0,0E0,0E0,0E0,0E0,0E0,0E0,0E0,0E0,0E0,0E0,0E0,0E0,0E0,0E0,0E0,0E0,0E0,0E0,0E0,0E0,0E0,0E0,0E0,0E0,0E0,0E0,0E0,0E0,0E0,0E0,0E0,0E0,0E0,0E0,0E0,0E0,0E0,0E0,0E0,0E0],"parents":[2147483647,0,0,1,1,2,2,4,4,5,5,6,6,7,7,8,8,9,9,10,10,11,11,12,12,13,13,15,15,16,16,18,18,19,19,20,20,21,21,22,22,23,23,24,24,25,25,27,27,28,28,29,29,30,30,31,31,34,34,36,36,37,37,41,41,42,42,43,43,44,44,47,47,48,48,49,49,50,50,51,51,52,52,53,53,54,54,58,58,59,59,63,63,64,64,65,65,66,66,67,67,68,68,72,72,73,73,74,74,75,75,77,77,78,78,79,79,81,81,82,82,83,83,84,84,85,85,86,86,92,92,96,96,97,97,98,98,99,99,101,101,102,102,103,103,104,104,105,105,106,106,108,108,109,109,112,112,113,113,114,114,115,115,117,117,118,118,119,119,120,120,121,121,125,125,126,126,127,127,128,128,129,129,130,130,132,132,134,134,136,136,137,137,140,140,141,141,142,142],"right_children":[2,4,6,-1,8,10,12,14,16,18,20,22,24,26,-1,28,30,-1,32,34,36,38,40,42,44,46,-1,48,50,52,54,56,-1,-1,58,-1,60,62,-1,-1,-1,64,66,68,70,-1,-1,72,74,76,78,80,82,84,86,-1,-1,-1,88,90,-1,-1,-1,92,94,96,98,100,102,-1,-1,-1,104,106,108,110,-1,112,114,116,-1,118,120,122,124,126,128,-1,-1,-1,-1,-1,130,-1,-1,-1,132,134,136,138,-1,140,142,144,146,148,150,-1,152,154,-1,-1,156,158,160,162,-1,164,166,168,170,172,-1,-1,-1,174,176,178,180,182,184,-1,186,-1,188,-1,190,192,-1,-1,194,196,198,-1,-1,-1,-1,-1,-1,-1,-1,-1,-1,-1,-1,-1,-1,-1,-1,-1,-1,-1,-1,-1,-1,-1,-1,-1,-1,-1,-1,-1,-1,-1,-1,-1,-1,-1,-1,-1,-1,-1,-1,-1,-1,-1,-1,-1,-1,-1,-1,-1,-1,-1,-1,-1,-1,-1,-1],"split_conditions":[9E0,1E0,-3.388E0,7.9586074E-2,1.2966336E-1,4.796968E-1,8.1406105E1,1.1964042E-2,-1.692E0,3.7013936E-1,5.25182E0,4.80411E1,1.1E1,4.7332618E-1,7.867059E-2,1.7507559E-1,3E0,7.850289E-2,3.139681E-1,5.42857E1,3.239586E-1,2.409999E-2,1.28806E1,5.5082566E-1,1E0,1.685762E-2,-6.2907554E-2,3.9436254E-1,1.9898252E-1,3.6981517E-1,4.574797E-1,9.61615E0,5.7193197E-2,-1.3387667E-1,2.4107888E-2,4.6932504E-2,1.08184E1,3.59E1,-1.5305655E-1,4.016696E-3,6.859353E-2,7.9396594E-1,1E0,3.03333E1,3.90025E0,-1.8346684E-2,5.0636657E-2,2.9543716E-1,-2.556E0,3E0,6E1,9.209705E-1,2.5439453E-1,9.209705E-1,3.9436254E-1,5.6644693E-2,-7.537105E-2,-1.4235919E-2,8.002699E-1,5.83375E1,-1.4381047E-1,1.0267326E-2,-8.6580515E-2,4.765897E-1,1E0,8.935596E-2,5.241888E-1,-1E-5,4.2E1,9.512984E-4,-1.1336109E-1,7.4367076E-2,5.66667E1,1.6385977E-1,9.61615E0,1E0,3.5144795E-2,-2.466E0,-1.808E0,1E0,-1.4722975E-1,4.680289E-1,1.3026986E-1,-1E-5,2.9371896E-1,5E0,4.424E1,7.3876314E-2,3.5571933E-3,-1.4547522E-1,-1.7752593E-2,7.6258056E-2,9.3560115E-2,-7.1718976E-2,5.8271572E-2,-8.353529E-2,3.814506E-2,4.999085E-1,4.796968E-1,1.5E1,-1.569843E-1,1.3E1,7.2571686E-3,3.971263E-1,3.36E1,3.31565E1,6.13299E-1,-0E0,1.6385977E-1,6.6681284E-1,-1.17201395E-2,-1.4616817E-1,1.9113073E-1,5E0,4.5309952E-1,2.2916275E-1,-1.4901377E-1,4.1414715E-2,2.4335293E-1,8.4142566E-1,2.3253E-1,3.6981517E-1,-1.07961774E-1,2.8377173E-2,-1.4930223E-1,2.1340412E-1,9.07545E0,7E0,7.742824E-1,5.158301E-1,1E0,7.879077E-2,6E1,-4.0308844E-2,5.63551E0,-0E0,3.37E1,3.34E1,6.383802E-2,-1.2536082E-1,9.027946E-1,8.944641E-1,1.713E1,-8.8364035E-2,3.252673E-2,-7.8887325E-3,5.678526E-2,-1.433208E-1,-4.3486323E-2,-6.5448634E-2,-1.3790457E-1,-1.2824163E-1,-2.8649883E-2,-1.2611622E-1,-1.4525269E-1,-3.32466E-2,-1.3680995E-1,-1.46047E-1,2.3627752E-2,-4.0880423E-3,-1.3939571E-1,6.2474824E-2,-1.3943517E-2,-7.141602E-2,-1.651882E-3,-1.3532256E-1,-4.5084808E-2,-1.0159522E-1,-1.4059493E-1,-1.3961518E-1,-4.4854425E-2,7.517638E-2,4.035437E-2,6.660517E-2,-7.448915E-2,6.8755515E-2,3.7382232E-4,-1.4505358E-1,-9.867313E-2,-1.8867267E-2,-8.052593E-2,1.3162302E-3,-7.720272E-2,7.563164E-2,-0E0,-5.3018272E-2,4.463E-2,1.1575599E-2,6.7862E-2,-1.3484919E-1,-4.6594087E-2,-1.2367362E-1,2.1158697E-2,6.849613E-2,2.313447E-2,7.385707E-2,-3.196262E-2,5.4393943E-2,7.859633E-2],"split_indices":[79,79,57,0,144,144,80,146,57,144,45,39,79,125,0,138,79,0,125,39,146,70,41,146,92,125,0,144,144,146,146,45,0,0,125,0,45,21,0,0,0,125,11,39,45,0,0,144,57,79,39,141,135,141,144,0,0,0,139,39,0,0,0,146,86,139,134,14,39,0,0,0,39,138,45,86,0,57,57,92,0,144,144,58,146,79,39,0,0,0,0,0,139,0,0,0,141,139,144,79,0,79,125,135,21,44,146,0,138,141,0,0,138,79,146,146,0,138,135,141,83,146,0,0,0,144,45,79,125,146,10,0,39,0,44,0,21,21,0,0,125,131,58,0,0,0,0,0,0,0,0,0,0,0,0,0,0,0,0,0,0,0,0,0,0,0,0,0,0,0,0,0,0,0,0,0,0,0,0,0,0,0,0,0,0,0,0,0,0,0,0,0,0,0,0,0,0,0,0],"split_type":[0,0,0,0,0,0,0,0,0,0,0,0,0,0,0,0,0,0,0,0,0,0,0,0,0,0,0,0,0,0,0,0,0,0,0,0,0,0,0,0,0,0,0,0,0,0,0,0,0,0,0,0,0,0,0,0,0,0,0,0,0,0,0,0,0,0,0,0,0,0,0,0,0,0,0,0,0,0,0,0,0,0,0,0,0,0,0,0,0,0,0,0,0,0,0,0,0,0,0,0,0,0,0,0,0,0,0,0,0,0,0,0,0,0,0,0,0,0,0,0,0,0,0,0,0,0,0,0,0,0,0,0,0,0,0,0,0,0,0,0,0,0,0,0,0,0,0,0,0,0,0,0,0,0,0,0,0,0,0,0,0,0,0,0,0,0,0,0,0,0,0,0,0,0,0,0,0,0,0,0,0,0,0,0,0,0,0,0,0,0,0,0,0,0,0,0,0,0,0],"sum_hessian":[1.405231E5,5.4104066E4,8.641902E4,3.7008303E3,5.0403234E4,9.317307E2,8.548729E4,1.3157516E3,4.9087484E4,2.8700262E2,6.447281E2,1.0956588E2,8.537773E4,1.3701537E2,1.1787362E3,3.824489E4,1.0842593E4,1.9064038E2,9.636225E1,9.075021E1,5.539779E2,7.28505E1,3.6715385E1,2.7510996E3,8.2626625E4,1.2552079E2,1.1494582E1,2.885906E3,3.5358984E4,7.577352E3,3.265241E3,3.413681E1,6.222544E1,3.541801E1,5.53322E1,1.311895E1,5.4085895E2,3.6558746E1,3.6291756E1,1.1452507E1,2.5262877E1,1.6646394E3,1.0864601E3,8.259476E4,3.1870052E1,1.3809497E1,1.1171129E2,5.640764E2,2.3218296E3,2.443575E3,3.291541E4,1.4379835E3,6.1393687E3,9.626469E2,2.302594E3,2.1889439E1,1.2247374E1,1.8122974E1,3.7209225E1,4.030658E1,5.0055237E2,2.1044565E1,1.551418E1,1.6373445E3,2.729492E1,9.392246E2,1.472355E2,8.73254E1,8.250743E4,1.3622287E1,1.8247765E1,8.465841E1,4.7941803E2,2.232894E3,8.893554E1,2.4298054E3,1.376942E1,3.0861832E4,2.0535789E3,9.3174927E2,5.0623425E2,7.127875E2,5.426581E3,9.10152E2,5.249496E1,4.3050766E2,1.8720864E3,2.5073097E1,1.21361265E1,2.4924026E1,1.5382553E1,1.1409092E3,4.9643533E2,1.3836444E1,1.3458475E1,1.4361407E1,9.248632E2,5.8037785E1,8.9197716E1,7.613887E1,1.1186533E1,5.2993774E2,8.197749E4,4.4118326E2,3.8234745E1,2.0562385E3,1.7665547E2,2.0658972E1,6.8276566E1,2.4096624E3,2.0143187E1,2.999654E4,8.652931E2,5.058429E1,2.0029946E3,8.7649036E2,5.5258945E1,3.8425183E2,3.2853564E2,2.5190808E3,2.9075002E3,8.9791846E2,1.2233504E1,1.4833021E1,3.766194E1,1.9355005E2,2.3695763E2,4.325407E2,1.4395457E3,2.884556E1,4.6758975E2,1.9249017E2,7.3237305E2,1.6913004E1,4.1124783E1,1.4636284E1,7.456143E1,3.2247387E1,4.3891487E1,1.1777575E1,5.1816016E2,3.5397805E3,7.843771E4,4.1460068E2,2.6582603E1,1.833826E1,1.9896484E1,2.0436738E3,1.2564772E1,6.9410065E1,1.0724541E2,5.565113E1,1.2625434E1,2.1733938E3,2.3626846E2,1.3042786E1,8.522503E2,1.2034631E1,3.854966E1,2.9102312E1,1.9738923E3,1.582599E2,7.1823047E2,9.852698E1,2.8572485E2,3.0729868E2,2.1236954E1,1.5533782E3,9.657026E2,2.8880552E3,1.944494E1,5.8159985E2,3.163186E2,7.9599106E1,1.13950935E2,2.0877788E2,2.817975E1,3.6320517E2,6.933553E1,6.2701154E2,8.125342E2,1.5393254E1,1.3452305E1,4.4216577E2,2.5423979E1,2.7002167E1,7.0537085E2,1.3940513E1,2.7184269E1,4.3356724E1,3.1204712E1,1.389627E1,1.8351116E1,4.7187912E2,4.628104E1,3.5042637E3,3.551697E1,1.4793253E2,7.828978E4],"tree_param":{"num_deleted":"0","num_feature":"147","num_nodes":"199","size_leaf_vector":"1"}},{"base_weights":[6.58784E-2,-1.6906465E0,1.2325783E0,7.8079805E-2,-1.8945279E0,1.2578931E0,-9.671896E-1,1.1956019E0,-1.9865212E0,-8.1533647E-1,1.2653817E0,4.7096467E-1,-1.74111E0,1.2487293E0,-1.0992177E-1,-2.1807685E0,-1.3742944E0,-1.9647032E0,4.2468092E-1,1.2697127E0,-2.2862203E-1,-1.987366E0,7.9241174E-1,7.499706E-2,-1.8817393E0,7.854773E-2,9.607383E-1,-1.9110508E0,-2.20696E0,-1.7071155E0,-5.295991E-1,2.882344E-2,-2.2234635E0,7.125371E-1,-1.4554505E-1,1.2720618E0,-2.3387742E-1,-2.1712184E0,3.1051147E-1,-6.4220786E-2,-1.40107E-1,9.3268347E-1,-1.06136486E-1,-2.1622458E0,-1.403803E0,7.626529E-2,6.8804926E-1,-1.3478702E-1,-1.4590627E0,-1.3482785E-1,-2.1882432E0,-8.220778E-1,-1.8649521E0,-6.7021556E-2,-2.2984958E0,-5.791894E-2,-1.403334E-1,7.537298E-2,4.349424E-1,1.0560094E0,1.2776664E0,-1.7589934E-1,1.316943E-2,-1.5648742E-1,-8.423726E-2,8.123074E-1,-1.9694548E0,7.678445E-2,6.2301475E-1,-7.571029E-2,-1.3310033E-1,-6.47916E-1,-1.8115816E0,3.1512356E-1,6.334611E-2,-1.1850666E0,-1.3807379E-1,-2.000633E0,-1.3379698E-1,-1.4057052E-1,-5.0776035E-1,-1.6434479E0,-2.100504E0,-1.8592939E0,2.2724305E-1,-1.4002013E-1,-4.1038964E-2,-1.7387746E-1,5.4230303E-2,-1.1224816E0,1.097096E0,-3.3016995E-2,1.2780492E0,1.8920495E-1,-8.132384E-2,-3.0298024E-1,6.3113675E-2,-6.0503338E-2,-1.6715881E-1,7.4814564E-1,-3.580153E-2,-9.0528995E-1,2.3985744E-2,-8.204498E-1,-1.2342568E-1,2.9348366E-2,-2.2326604E-2,5.338076E-1,-1.3548318E0,-1.918339E0,-1.3284245E-1,-1.9626857E0,-1.7507826E-1,-1.7709068E0,-8.753806E-2,-2.1558328E0,-1.5352402E0,5.9535507E-2,-1.9533904E0,4.8895043E-1,-1.5532895E0,3.0438423E-2,-5.4112536E-1,-0E0,-1.6426356E0,1.1735665E0,5.619836E-1,1.2832035E0,1.202044E0,-5.582949E-1,5.171696E-1,-5.742016E-2,1.8229257E-2,8.947723E-1,3.9601964E-1,-5.453497E-1,-1.1608187E-1,-1.2655959E-1,-0E0,6.27677E-2,-1.3055433E-1,-9.5942676E-2,-3.3666074E-2,-1.1978799E-1,-7.4360736E-2,-7.164961E-2,-1.2658538E-1,1.255463E-3,-1.4569299E-1,-9.316514E-2,-1.2847269E-1,-1.2803832E-1,1.4708183E-2,-1.1763621E-1,-1.3411511E-1,-4.7903955E-2,-1.3340138E-1,-1.2361168E-1,-5.4097828E-2,3.8890637E-2,-7.5731575E-2,-2.791131E-2,-1.0337354E-1,-8.066088E-2,1.4028943E-2,-1.5102522E-1,-3.986367E-2,-4.7872257E-3,7.1429275E-2,5.29019E-2,1.076158E-2,6.664553E-2,7.729997E-2,7.306877E-2,2.20484E-2,-8.3434574E-2,7.955695E-3,-0E0,4.517345E-2,2.3203183E-2,6.3801214E-2,4.762346E-2,-3.0510804E-2,1.233896E-2,-5.9679277E-2],"categories":[],"categories_nodes":[],"categories_segments":[],"categories_sizes":[],"default_left":[0,0,0,0,0,0,0,0,1,0,0,0,0,0,0,0,0,0,1,0,0,0,1,0,0,0,0,0,0,0,0,0,0,0,0,0,0,1,0,0,0,0,0,0,0,0,0,0,0,0,0,0,0,0,1,0,0,0,0,0,0,0,0,0,0,0,0,0,0,0,0,1,0,0,0,0,0,0,0,0,0,0,1,0,0,0,0,0,0,0,1,0,0,0,0,0,0,0,0,1,0,0,0,0,0,0,0,1,0,0,0,0,1,0,0,0,0,0,0,1,0,0,0,0,0,0,0,0,0,0,0,0,0,0,0,0,0,0,0,0,0,0,0,0,0,0,0,0,0,0,0,0,0,0,0,0,0,0,0,0,0,0,0,0,0,0,0,0,0,0,0,0,0,0,0,0,0,0,0,0,0,0,0,0,0],"id":4,"left_children":[1,3,5,-1,7,9,11,13,15,17,19,21,23,25,-1,27,29,31,33,35,37,39,41,-1,43,-1,45,47,49,51,53,-1,55,57,-1,59,61,63,65,-1,-1,67,-1,69,71,-1,73,-1,75,-1,77,79,81,83,85,-1,-1,-1,87,89,91,-1,93,-1,-1,95,97,-1,99,-1,-1,101,103,105,-1,107,-1,109,-1,-1,111,113,115,117,119,-1,-1,121,-1,123,125,-1,127,129,-1,131,-1,-1,-1,133,-1,135,-1,137,-1,-1,-1,139,141,143,-1,145,147,149,151,153,155,-1,157,159,161,-1,163,-1,165,167,169,171,173,175,177,-1,-1,179,181,183,-1,-1,-1,-1,-1,-1,-1,-1,-1,-1,-1,-1,-1,-1,-1,-1,-1,-1,-1,-1,-1,-1,-1,-1,-1,-1,-1,-1,-1,-1,-1,-1,-1,-1,-1,-1,-1,-1,-1,-1,-1,-1,-1,-1,-1,-1,-1,-1,-1],"loss_changes":[2.8285022E5,3.355639E4,4.619117E3,0E0,1.4660922E4,1.2739688E3,1.051824E3,2.3865991E2,5.9484844E3,4.2240985E2,5.3052344E2,2.5834842E2,2.5940967E2,1.9449707E1,0E0,2.6046875E2,3.3875273E3,1.0035986E2,1.1269743E2,2.89625E2,2.4967418E2,5.277771E0,1.0349199E2,0E0,7.181128E1,0E0,1.6828735E1,4.928662E2,1.2546875E1,1.2036816E3,2.7874163E3,0E0,1.2733154E1,1.6205078E1,0E0,9.4125E1,8.886119E1,9.388016E0,2.0820804E2,0E0,0E0,2.5965027E1,0E0,9.577148E0,6.3223267E1,0E0,1.558757E1,0E0,3.1831055E2,0E0,1.3451562E2,6.185567E2,3.757793E2,1.429817E3,2.5868408E1,0E0,0E0,0E0,2.6125214E1,1.8508301E2,5.6835938E1,0E0,2.5622671E1,0E0,0E0,4.119232E1,1.8122116E1,0E0,2.3042877E1,0E0,0E0,2.2204582E1,2.8042267E1,8.326996E0,0E0,3.1433142E2,0E0,5.0254883E1,0E0,0E0,5.224039E2,7.479463E2,1.0399121E2,1.0456055E2,1.0808333E3,0E0,0E0,9.207001E0,0E0,2.1669113E1,7.981372E1,0E0,2.6359375E1,2.5282124E1,0E0,1.1163109E1,0E0,0E0,0E0,4.6980743E0,0E0,1.9267048E1,0E0,3.1094961E1,0E0,0E0,0E0,1.2984183E2,1.816825E2,1.1441211E2,0E0,1.5515747E1,3.9404208E2,2.7675488E2,1.9840616E2,3.881543E1,1.556065E2,0E0,3.3586914E1,5.55308E2,4.9048706E1,0E0,1.77398E1,0E0,1.5795265E1,3.0916748E1,2.9291504E1,7.6015625E0,4.6993652E1,1.934831E1,8.801565E0,0E0,0E0,5.160759E0,1.6267685E1,1.7964563E1,0E0,0E0,0E0,0E0,0E0,0E0,0E0,0E0,0E0,0E0,0E0,0E0,0E0,0E0,0E0,0E0,0E0,0E0,0E0,0E0,0E0,0E0,0E0,0E0,0E0,0E0,0E0,0E0,0E0,0E0,0E0,0E0,0E0,0E0,0E0,0E0,0E0,0E0,0E0,0E0,0E0,0E0,0E0,0E0,0E0,0E0,0E0,0E0,0E0],"parents":[2147483647,0,0,1,1,2,2,4,4,5,5,6,6,7,7,8,8,9,9,10,10,11,11,12,12,13,13,15,15,16,16,17,17,18,18,19,19,20,20,21,21,22,22,24,24,26,26,27,27,28,28,29,29,30,30,32,32,33,33,35,35,36,36,37,37,38,38,41,41,43,43,44,44,46,46,48,48,50,50,51,51,52,52,53,53,54,54,58,58,59,59,60,60,62,62,65,65,66,66,68,68,71,71,72,72,73,73,75,75,77,77,80,80,81,81,82,82,83,83,84,84,87,87,89,89,90,90,92,92,93,93,95,95,99,99,101,101,103,103,107,107,108,108,109,109,111,111,112,112,113,113,114,114,115,115,116,116,118,118,119,119,120,120,122,122,124,124,125,125,126,126,127,127,128,128,129,129,130,130,133,133,134,134,135,135],"right_children":[2,4,6,-1,8,10,12,14,16,18,20,22,24,26,-1,28,30,32,34,36,38,40,42,-1,44,-1,46,48,50,52,54,-1,56,58,-1,60,62,64,66,-1,-1,68,-1,70,72,-1,74,-1,76,-1,78,80,82,84,86,-1,-1,-1,88,90,92,-1,94,-1,-1,96,98,-1,100,-1,-1,102,104,106,-1,108,-1,110,-1,-1,112,114,116,118,120,-1,-1,122,-1,124,126,-1,128,130,-1,132,-1,-1,-1,134,-1,136,-1,138,-1,-1,-1,140,142,144,-1,146,148,150,152,154,156,-1,158,160,162,-1,164,-1,166,168,170,172,174,176,178,-1,-1,180,182,184,-1,-1,-1,-1,-1,-1,-1,-1,-1,-1,-1,-1,-1,-1,-1,-1,-1,-1,-1,-1,-1,-1,-1,-1,-1,-1,-1,-1,-1,-1,-1,-1,-1,-1,-1,-1,-1,-1,-1,-1,-1,-1,-1,-1,-1,-1,-1,-1,-1],"split_conditions":[9E0,1E0,9.9996734E-1,7.8079805E-2,5.0001264E-1,3.44E1,2.2103706E-1,9.9609846E-1,2.7182078E-2,1.3E1,1E0,4.9E1,5.0001264E-1,9.7264856E-1,-1.0992177E-1,2.2103706E-1,3E0,1.1731591E-1,-1E-5,1E0,5.55E1,3.823724E-1,5.000149E-1,7.499706E-2,5.97E1,7.854773E-2,5.686886E-1,5.48E1,5.0001377E-1,1.4052658E-1,1E0,2.882344E-2,2.702349E-1,5.0001264E-1,-1.4554505E-1,1E1,5.9E1,6.7972255E-1,9.6878916E-1,-6.4220786E-2,-1.40107E-1,5.0001264E-1,-1.06136486E-1,3.1137E0,7.19814E0,7.626529E-2,1.1776062E-2,-1.3478702E-1,1E0,-1.3482785E-1,5.000149E-1,5.0001377E-1,5.0652254E-1,4.2E1,1.4934306E-1,-5.791894E-2,-1.403334E-1,7.537298E-2,1.5E1,4.01E1,5.5E1,-1.7589934E-1,9.4976336E-1,-1.5648742E-1,-8.423726E-2,3.1569996E-1,1.1E0,7.678445E-2,6E0,-7.571029E-2,-1.3310033E-1,1.465E2,4.155972E-1,1.0348992E-1,6.334611E-2,1.1731591E-1,-1.3807379E-1,5.699485E-1,-1.3379698E-1,-1.4057052E-1,4.06E1,5.058706E-1,8.225328E-1,5.4727368E-2,1E0,-1.4002013E-1,-4.1038964E-2,3.858459E-1,5.4230303E-2,1.7253192E-1,1.074706E-1,-3.3016995E-2,9.6878916E-1,5.0001377E-1,-8.132384E-2,4.6274173E-1,6.3113675E-2,-6.0503338E-2,-1.6715881E-1,1.9100903E-1,-3.580153E-2,5E0,2.3985744E-2,6.0236E-1,-1.2342568E-1,2.9348366E-2,-2.2326604E-2,-1E-5,1.949204E-1,5.589569E-1,-1.3284245E-1,3.710641E-2,5.000155E-1,3.6522356E-1,4.06E1,6.192624E-1,9.57111E-1,5.9535507E-2,4.01E1,5.000155E-1,3.6522356E-1,3.0438423E-2,7.6438946E-1,-0E0,6.6096973E-1,6.3E1,8.593267E-1,4.2E1,9.169888E-1,3E0,2.459517E-1,-5.742016E-2,1.8229257E-2,5.0471246E-1,5.25182E0,1.07E0,-1.1608187E-1,-1.2655959E-1,-0E0,6.27677E-2,-1.3055433E-1,-9.5942676E-2,-3.3666074E-2,-1.1978799E-1,-7.4360736E-2,-7.164961E-2,-1.2658538E-1,1.255463E-3,-1.4569299E-1,-9.316514E-2,-1.2847269E-1,-1.2803832E-1,1.4708183E-2,-1.1763621E-1,-1.3411511E-1,-4.7903955E-2,-1.3340138E-1,-1.2361168E-1,-5.4097828E-2,3.8890637E-2,-7.5731575E-2,-2.791131E-2,-1.0337354E-1,-8.066088E-2,1.4028943E-2,-1.5102522E-1,-3.986367E-2,-4.7872257E-3,7.1429275E-2,5.29019E-2,1.076158E-2,6.664553E-2,7.729997E-2,7.306877E-2,2.20484E-2,-8.3434574E-2,7.955695E-3,-0E0,4.517345E-2,2.3203183E-2,6.3801214E-2,4.762346E-2,-3.0510804E-2,1.233896E-2,-5.9679277E-2],"split_indices":[79,79,124,0,128,19,136,125,124,79,88,19,128,124,0,136,79,142,14,89,19,129,128,0,19,0,138,19,128,138,88,0,130,128,0,79,19,125,129,0,0,128,0,43,43,0,142,0,101,0,128,128,142,19,67,0,0,0,79,19,14,0,129,0,0,125,23,0,30,0,0,34,129,129,0,142,0,142,0,0,19,142,129,130,89,0,0,138,0,138,130,0,129,128,0,138,0,0,0,130,0,30,0,125,0,0,0,14,136,125,0,136,128,142,19,142,129,0,19,128,142,0,130,0,124,72,124,19,130,30,130,0,0,125,43,23,0,0,0,0,0,0,0,0,0,0,0,0,0,0,0,0,0,0,0,0,0,0,0,0,0,0,0,0,0,0,0,0,0,0,0,0,0,0,0,0,0,0,0,0,0,0,0,0,0],"split_type":[0,0,0,0,0,0,0,0,0,0,0,0,0,0,0,0,0,0,0,0,0,0,0,0,0,0,0,0,0,0,0,0,0,0,0,0,0,0,0,0,0,0,0,0,0,0,0,0,0,0,0,0,0,0,0,0,0,0,0,0,0,0,0,0,0,0,0,0,0,0,0,0,0,0,0,0,0,0,0,0,0,0,0,0,0,0,0,0,0,0,0,0,0,0,0,0,0,0,0,0,0,0,0,0,0,0,0,0,0,0,0,0,0,0,0,0,0,0,0,0,0,0,0,0,0,0,0,0,0,0,0,0,0,0,0,0,0,0,0,0,0,0,0,0,0,0,0,0,0,0,0,0,0,0,0,0,0,0,0,0,0,0,0,0,0,0,0,0,0,0,0,0,0,0,0,0,0,0,0,0,0,0,0,0,0],"sum_hessian":[1.3802033E5,5.5085207E4,8.2935125E4,3.5182466E3,5.156696E4,8.1992445E4,9.426787E2,1.4901509E3,5.0076812E4,2.941726E2,8.169827E4,3.2903516E2,6.1364355E2,1.4650863E3,2.5064594E1,3.801276E4,1.206405E4,1.5334807E2,1.4082454E2,8.146333E4,2.349475E2,3.7300762E1,2.917344E2,2.6960659E1,5.8668286E2,1.2204316E3,2.4465472E2,3.3717783E3,3.4640984E4,8.652549E3,3.4115002E3,1.4015447E1,1.3933261E2,1.285672E2,1.2257339E1,8.133745E4,1.25872894E2,5.1627327E1,1.8332018E2,1.1674905E1,2.5625856E1,2.7732315E2,1.4411262E1,3.6695453E2,2.1972835E2,1.1187209E2,1.3278264E2,1.9510077E3,1.4207706E3,1.2533387E4,2.2107596E4,1.3114132E3,7.341136E3,2.7052534E3,7.062468E2,1.2407209E1,1.2692541E2,4.1289192E1,8.727801E1,2.0655264E3,7.927193E4,1.1023426E1,1.14849464E2,3.144213E1,2.0185196E1,1.5098557E2,3.2334606E1,1.2861964E2,1.4870349E2,2.0914875E1,3.4603967E2,7.868661E1,1.4104175E2,6.818053E1,6.460212E1,1.0715736E3,3.4919702E2,3.4378867E3,1.8669709E4,2.2438701E2,1.0870262E3,3.7880205E3,3.5531157E3,3.8222662E2,2.3230269E3,6.9325464E2,1.2992183E1,3.624692E1,5.1031086E1,3.734766E1,2.0281788E3,1.5588851E1,7.9256336E4,1.0301273E2,1.1836732E1,2.5068302E1,1.2591727E2,1.5924771E1,1.6409838E1,1.3622768E2,1.2475816E1,6.4527306E1,1.4159298E1,2.8982132E1,1.12059616E2,5.6586067E1,1.1594456E1,9.53502E1,9.7622345E2,2.4646743E3,9.732124E2,2.0114113E2,8.858851E2,3.5001318E3,2.878886E2,3.23301E3,3.2010565E2,1.15660715E1,3.7066055E2,2.026321E3,2.9670575E2,1.1005576E1,2.5241344E1,1.197777E1,2.5369892E1,1.771498E3,2.566808E2,7.41984E4,5.0579404E3,2.9732239E1,7.3280495E1,1.3436679E1,1.1631622E1,9.243416E1,4.3793518E1,4.9224155E1,1.530315E1,1.128812E1,1.7694012E1,8.088788E1,1.4462317E1,7.4885126E2,2.2737216E2,2.228117E3,2.3655736E2,3.3107098E1,1.6803403E2,8.142301E2,7.165494E1,2.1717065E3,1.3284253E3,4.089203E1,2.4699657E2,8.59667E2,2.373343E3,1.5489023E2,1.6521542E2,3.3684424E2,3.381632E1,1.8601635E3,1.6615761E2,4.0314312E1,2.5639145E2,1.3477039E1,1.1764304E1,1.2357114E1,1.3012777E1,1.6837614E1,1.7546604E3,1.3785315E2,1.1882765E2,3.9948648E2,7.379891E4,4.9853794E3,7.2561264E1,1.4597943E1,1.5134295E1,2.2946545E1,5.033395E1,2.5400908E1,6.703326E1,3.1838638E1,1.1954878E1,1.6915369E1,3.230879E1],"tree_param":{"num_deleted":"0","num_feature":"147","num_nodes":"185","size_leaf_vector":"1"}},{"base_weights":[6.640436E-2,-1.5357702E0,1.001655E0,1.2196414E0,-1.6867297E0,6.728013E-2,1.1747057E0,1.2453141E0,-1.0087065E-1,7.626251E-2,-1.7865533E0,6.664147E-1,-1.4586393E0,-6.012357E-1,1.2141708E0,7.676579E-2,1.1090237E0,-1.216451E0,-1.9110675E0,-1.311342E-1,7.492297E-1,-1.8096393E0,-6.6410685E-1,9.131332E-1,-1.5171906E0,1.2296695E0,-1.7113264E0,8.496619E-3,7.063449E-2,7.395769E-2,-1.2943615E0,-2.037441E0,-1.2838494E0,8.4774E-2,9.9428266E-1,-1.9448363E0,-2.4048875E-1,-1.9655163E0,-2.9617617E-1,7.676326E-2,4.404297E-1,-1.6387101E0,9.17288E-2,8.422512E-1,1.2511666E0,6.1133336E-2,-1.9899566E0,-1.136562E0,-1.24230735E-1,-2.0614688E0,-1.7958368E0,-1.7650563E0,-1.390752E-1,5.2657694E-1,-1.9136193E0,1.1887543E0,4.6451965E-1,-1.9609588E0,3.289386E-2,-9.0100616E-1,7.3995423E-1,-2.0306187E0,-4.0313162E-2,2.858277E-1,-1.4218309E0,7.324524E-1,6.49003E-2,-6.4168155E-1,-1.7705728E0,5.397005E-2,-1.7344174E-1,7.512628E-2,4.3323937E-1,1.0306175E0,1.2557293E0,-1.0103586E0,-1.2562686E-1,-1.5492274E0,-8.484904E-1,-2.0681157E0,-1.5339916E0,-8.7202305E-1,-2.0394852E0,-1.7972169E0,2.7114773E-1,3.327114E-1,-1.5241205E0,1.2237098E0,-2.2780362E-1,-1.9681449E0,-2.6241268E-4,1.2113001E0,-1.2757834E0,6.153864E-1,-1.6773052E0,-2.003518E0,-1.0638562E0,-1.1388934E0,6.548052E-2,-0E0,6.1076824E-2,-1.282472E-1,-1.1623259E0,8.41346E-1,-1.2311555E-1,-1.6904579E0,2.929398E-1,6.275076E-2,1.6107954E-1,5.202813E-1,-1.3221788E0,-1.3213056E0,-0E0,-1.8045642E0,-0E0,4.5781362E-1,-7.543634E-2,-1.0404028E0,7.963113E-1,1.0566474E0,-6.284437E-2,1.2562588E0,-0E0,-1.2866686E-1,4.8419094E-4,-6.26121E-1,-1.0831675E-1,-6.742405E-1,-1.5997801E0,-2.0700083E0,-0E0,5.6849875E-2,-1.8250368E0,-6.2680554E-1,-1.2016055E-1,-1.6175369E0,-1.2418682E-1,-1.9560397E0,-1.5259761E0,6.9959946E-2,-1.0151074E-1,8.067537E-1,-1.24203324E-1,3.4896396E-2,-1.6347126E0,7.6081514E-2,-3.868416E-2,-8.238457E-2,-1.3109154E-1,-1.181156E0,-1.2542109E-1,1.2192166E0,-7.320397E-2,2.130614E-3,-1.7768818E0,-1.0229847E0,7.696193E-1,-1.8967086E0,-3.8378734E-2,-2.0391905E0,-1.2279172E0,1.5145758E-2,-1.1893303E-1,-1.8457931E0,-5.329156E-1,-1.1734259E-1,-0E0,9.3654794E-1,-5.522829E-2,-1.8912575E0,3.225465E-2,6.675559E-2,-5.1489063E-2,-7.857014E-2,6.2512213E-1,-6.390525E-1,6.259568E-2,-1.1007397E-2,-1.661752E-1,-1.1754699E-2,-1.1809141E-1,4.050966E-2,-3.081001E-1,-1.827948E0,-2.2040855E-3,-0E0,5.5878654E-2,-4.312649E-1,-1.6995184E0,9.2747855E-1,-1.1597353E0,7.626308E-2,8.706459E-1,7.6394774E-2,1.2344394E0,6.724829E-2,-6.718911E-2,-1.1560926E-1,-5.9123393E-3,-3.5725717E-2,-7.289402E-2,-5.370837E-2,-1.1203802E-1,-1.2497389E-1,-1.05969846E-1,-1.1573153E-1,1.3732063E-2,-6.910517E-2,-1.2713224E-2,-1.1885154E-1,-4.647287E-2,-1.1831923E-1,-5.1828794E-2,1.1439748E-2,-1.01098284E-1,-2.4046844E-2,5.792937E-2,-1.0357009E-1,4.1620646E-2,-5.689292E-2,8.8091185E-3,-1.0537155E-1,2.81775E-2,3.799951E-2,7.449756E-2,-1.6753238E-1,-5.4694515E-2,-1.5668692E-2,-1.6553389E-1,6.240981E-2,3.4485664E-3,-1.2936783E-1,-7.58901E-2,-1.7844189E-2,-1.2334773E-1,-1.0355965E-1,-1.1900943E-2,-7.604914E-2,4.473253E-2,-6.577992E-2,-1.3080573E-1,-9.092833E-3,-1.1853932E-1,6.1568618E-2,-7.742029E-3,-1.1864436E-1,-4.580454E-2,-9.792581E-3,6.259528E-2,-9.141029E-2,-0E0,6.295603E-3,-7.1674384E-2,-1.0399245E-1,-1.314146E-1,-1.15797475E-1,-6.853298E-4,-1.1734845E-1,-4.7715656E-2,-7.209141E-3,6.0062878E-2,-1.220806E-1,-1.4719097E-3,-2.2581816E-2,6.111599E-2,3.445302E-2,7.469773E-2],"categories":[],"categories_nodes":[],"categories_segments":[],"categories_sizes":[],"default_left":[1,0,1,0,1,0,0,0,0,0,1,0,0,0,0,0,0,0,1,0,0,0,0,0,0,1,0,0,0,0,0,1,0,0,0,1,1,1,0,0,0,0,0,0,0,0,0,0,0,0,0,1,0,1,0,1,0,1,0,1,0,0,0,0,0,0,0,0,1,0,0,0,0,0,0,0,0,1,1,1,0,1,0,1,0,0,0,1,0,0,0,0,0,0,0,1,0,0,0,0,0,0,0,0,0,1,0,0,0,0,0,0,0,0,0,0,0,0,0,0,0,0,0,0,0,0,0,0,0,1,0,0,1,0,0,0,0,1,0,0,0,0,0,0,1,0,0,0,0,0,0,0,0,0,0,0,0,0,0,0,0,0,0,0,0,0,0,1,0,0,0,0,0,0,0,0,0,0,0,0,0,0,0,0,0,0,0,0,0,0,0,0,0,0,0,0,0,0,0,0,0,0,0,0,0,0,0,0,0,0,0,0,0,0,0,0,0,0,0,0,0,0,0,0,0,0,0,0,0,0,0,0,0,0,0,0,0,0,0,0,0,0,0,0,0,0,0,0,0,0,0,0,0,0,0,0,0,0,0,0,0,0,0,0,0,0,0],"id":5,"left_children":[1,3,5,7,9,11,13,15,-1,-1,17,19,21,23,25,-1,27,29,31,-1,33,35,37,39,41,43,45,-1,-1,-1,47,49,51,53,55,57,59,61,63,-1,65,67,69,71,73,-1,75,77,-1,79,81,83,85,87,89,91,93,95,-1,97,99,101,-1,103,105,107,109,111,113,-1,115,-1,117,119,121,123,-1,125,127,129,131,133,135,137,139,141,143,145,147,149,-1,151,153,155,157,159,161,163,-1,-1,-1,-1,165,167,-1,169,171,-1,173,175,177,179,181,183,-1,185,-1,187,189,191,-1,193,195,-1,-1,197,-1,199,201,203,-1,-1,205,207,-1,209,-1,211,213,-1,-1,215,-1,-1,217,-1,-1,219,-1,221,-1,223,-1,-1,225,227,229,231,-1,233,235,237,-1,239,241,-1,-1,243,-1,245,-1,-1,-1,-1,247,249,-1,-1,-1,-1,-1,-1,251,253,-1,-1,-1,255,257,259,261,-1,263,-1,265,-1,-1,-1,-1,-1,-1,-1,-1,-1,-1,-1,-1,-1,-1,-1,-1,-1,-1,-1,-1,-1,-1,-1,-1,-1,-1,-1,-1,-1,-1,-1,-1,-1,-1,-1,-1,-1,-1,-1,-1,-1,-1,-1,-1,-1,-1,-1,-1,-1,-1,-1,-1,-1,-1,-1,-1,-1,-1,-1,-1,-1,-1,-1,-1,-1,-1,-1,-1,-1,-1,-1,-1],"loss_changes":[2.0219714E5,2.068904E4,1.3774766E4,1.916167E2,1.3904E4,1.2172767E4,5.0396797E3,5.974365E0,0E0,0E0,3.2318594E3,2.2507349E3,1.0421997E3,2.1678657E3,3.188211E3,0E0,2.7140991E1,1.55854E3,2.9607344E3,0E0,1.5112251E3,5.480088E2,5.4748694E2,9.751614E1,1.9320142E2,5.7872656E2,2.832915E2,0E0,0E0,0E0,9.563926E2,1.7333594E2,3.4561768E3,2.2102737E3,6.962173E2,9.8868164E1,1.348755E2,1.6303955E1,5.9127014E2,0E0,2.681845E1,1.1472998E2,1.5724646E1,6.0810767E2,6.2398438E1,0E0,2.6100708E1,7.7781055E2,0E0,9.236719E1,6.306328E2,2.9226367E2,1.2175436E3,1.0815687E3,4.3679077E1,2.7589697E2,5.881101E2,8.503906E1,0E0,5.9566414E1,1.727724E1,1.4471802E1,0E0,7.647426E2,1.4424078E2,2.302549E1,7.1658424E1,4.7719677E1,5.0390137E1,0E0,3.5132607E1,0E0,9.822794E2,7.32511E1,4.4226562E1,4.08546E1,0E0,6.1959766E2,5.0350024E2,1.10171875E2,2.5906512E2,1.5822177E2,1.5073242E1,1.8079688E2,1.1812695E2,1.572944E3,1.12220825E2,8.13595E1,2.7528845E2,3.3688477E1,0E0,9.4791504E1,3.223461E1,4.3080176E2,2.2533722E1,5.6560547E1,1.1176002E2,4.3903946E1,0E0,0E0,0E0,0E0,2.313842E1,8.036313E1,0E0,1.21869934E2,3.8978123E1,0E0,3.449292E1,5.386062E1,4.000106E1,3.4162613E1,1.16848755E1,2.9139404E1,0E0,8.095871E0,0E0,1.4149472E2,3.7809735E2,4.828125E1,0E0,1.3453125E1,3.375762E1,0E0,0E0,3.9138242E2,0E0,1.332185E2,1.2951135E2,4.5265625E1,0E0,0E0,6.710693E1,1.0310008E2,0E0,3.1955933E1,0E0,2.3243164E1,4.274016E2,0E0,0E0,2.184425E2,0E0,0E0,9.2027466E1,0E0,0E0,1.825261E2,0E0,5.7437675E1,0E0,4.9475098E1,0E0,0E0,2.1903679E1,1.8669238E2,2.9499127E2,9.05426E0,0E0,3.313672E1,4.8528534E1,4.5526417E1,0E0,6.2569885E0,3.037415E1,0E0,0E0,4.3424805E1,0E0,1.701361E1,0E0,0E0,0E0,0E0,1.4883373E1,1.7372498E1,0E0,0E0,0E0,0E0,0E0,0E0,1.5577398E1,1.9965576E1,0E0,0E0,0E0,1.155438E2,3.3956543E1,1.03378174E2,8.695898E1,0E0,1.2987402E2,0E0,9.973047E1,0E0,0E0,0E0,0E0,0E0,0E0,0E0,0E0,0E0,0E0,0E0,0E0,0E0,0E0,0E0,0E0,0E0,0E0,0E0,0E0,0E0,0E0,0E0,0E0,0E0,0E0,0E0,0E0,0E0,0E0,0E0,0E0,0E0,0E0,0E0,0E0,0E0,0E0,0E0,0E0,0E0,0E0,0E0,0E0,0E0,0E0,0E0,0E0,0E0,0E0,0E0,0E0,0E0,0E0,0E0,0E0,0E0,0E0,0E0,0E0,0E0,0E0,0E0,0E0,0E0,0E0,0E0,0E0,0E0,0E0,0E0,0E0],"parents":[2147483647,0,0,1,1,2,2,3,3,4,4,5,5,6,6,7,7,10,10,11,11,12,12,13,13,14,14,16,16,17,17,18,18,20,20,21,21,22,22,23,23,24,24,25,25,26,26,30,30,31,31,32,32,33,33,34,34,35,35,36,36,37,37,38,38,40,40,41,41,42,42,43,43,44,44,46,46,47,47,49,49,50,50,51,51,52,52,53,53,54,54,55,55,56,56,57,57,59,59,60,60,61,61,63,63,64,64,65,65,66,66,67,67,68,68,70,70,72,72,73,73,74,74,75,75,77,77,78,78,79,79,80,80,81,81,82,82,83,83,84,84,85,85,86,86,87,87,88,88,89,89,91,91,92,92,93,93,94,94,95,95,96,96,97,97,102,102,103,103,105,105,106,106,108,108,109,109,110,110,111,111,112,112,113,113,115,115,117,117,118,118,119,119,121,121,122,122,125,125,127,127,128,128,129,129,132,132,133,133,135,135,137,137,138,138,141,141,144,144,147,147,149,149,151,151,154,154,155,155,156,156,157,157,159,159,160,160,161,161,163,163,164,164,167,167,169,169,174,174,175,175,182,182,183,183,187,187,188,188,189,189,190,190,192,192,194,194],"right_children":[2,4,6,8,10,12,14,16,-1,-1,18,20,22,24,26,-1,28,30,32,-1,34,36,38,40,42,44,46,-1,-1,-1,48,50,52,54,56,58,60,62,64,-1,66,68,70,72,74,-1,76,78,-1,80,82,84,86,88,90,92,94,96,-1,98,100,102,-1,104,106,108,110,112,114,-1,116,-1,118,120,122,124,-1,126,128,130,132,134,136,138,140,142,144,146,148,150,-1,152,154,156,158,160,162,164,-1,-1,-1,-1,166,168,-1,170,172,-1,174,176,178,180,182,184,-1,186,-1,188,190,192,-1,194,196,-1,-1,198,-1,200,202,204,-1,-1,206,208,-1,210,-1,212,214,-1,-1,216,-1,-1,218,-1,-1,220,-1,222,-1,224,-1,-1,226,228,230,232,-1,234,236,238,-1,240,242,-1,-1,244,-1,246,-1,-1,-1,-1,248,250,-1,-1,-1,-1,-1,-1,252,254,-1,-1,-1,256,258,260,262,-1,264,-1,266,-1,-1,-1,-1,-1,-1,-1,-1,-1,-1,-1,-1,-1,-1,-1,-1,-1,-1,-1,-1,-1,-1,-1,-1,-1,-1,-1,-1,-1,-1,-1,-1,-1,-1,-1,-1,-1,-1,-1,-1,-1,-1,-1,-1,-1,-1,-1,-1,-1,-1,-1,-1,-1,-1,-1,-1,-1,-1,-1,-1,-1,-1,-1,-1,-1,-1,-1,-1,-1,-1,-1,-1],"split_conditions":[5.79E1,5.0001264E-1,5.80299E1,1E0,-1E-5,6.716613E-1,1E0,6.03784E1,-1.0087065E-1,7.626251E-2,2.1304016E-1,2.5E1,5.579016E-1,4.796968E-1,1E0,7.676579E-2,1.889373E-2,1.2966336E-1,3.15236E1,-1.311342E-1,1E0,1E0,1E0,3.2264987E-1,1E0,-1E-5,4.8524907E-1,8.496619E-3,7.063449E-2,7.395769E-2,9.256284E-1,4.06E1,1E0,4.8560515E-1,5.8506507E-1,4.4E0,4.85647E1,9.28E0,5.0002986E-1,7.676326E-2,1.8052976E-1,5.1536345E-1,5.7556957E-1,5.049104E-1,1E0,6.1133336E-2,8.2032704E-1,4.8214287E-1,-1.24230735E-1,1E0,5.893931E-1,3.33E-1,5.0002986E-1,5.0001264E-1,7.6175696E-1,5.000155E-1,7E0,5.56316E1,3.289386E-2,2.75E0,2.6182038E-1,1.3E1,-4.0313162E-2,1E0,8.554053E-1,4.1860208E-1,5.000155E-1,5.4733727E-2,6.23271E0,5.397005E-2,5.0001377E-1,7.512628E-2,1.9762754E-1,9.833983E-1,6.1E1,3.34E1,-1.2562686E-1,-1E-5,2.3333333E0,9.9611604E-1,2.4782127E-1,-1E-5,5.937953E-1,5.0001377E-1,1.0332E-2,1E0,4.5014322E-1,7.4181736E-2,5.000155E-1,4.9649218E-1,-2.6241268E-4,1E0,2.6158047E-1,1.8902662E-1,6.170107E-1,9.84394E-1,8.281575E-1,9.2968893E-1,6.548052E-2,-0E0,6.1076824E-2,-1.282472E-1,3.2E1,7E0,-1.2311555E-1,1.08E-1,6.116778E-1,6.275076E-2,5.4733727E-2,1E0,1.13397E0,1.17081404E-1,4.4532108E-1,1.22269E1,-0E0,5.032502E-1,-7.543634E-2,3.1947958E-1,9.062668E-1,5.0001264E-1,-6.284437E-2,5.0001264E-1,5.0001264E-1,-1.2866686E-1,4.8419094E-4,1.139E1,-1.0831675E-1,8.906899E-1,6.258839E-1,2E1,-0E0,5.6849875E-2,3.64E-1,2.0791256E-1,-1.2016055E-1,1E0,-1.2418682E-1,2.5E-1,3.351E-1,6.9959946E-2,-1.0151074E-1,3.9706135E-1,-1.24203324E-1,3.4896396E-2,3.18E-1,7.6081514E-2,-3.868416E-2,3.3367148E-1,-1.3109154E-1,5.977278E-1,-1.2542109E-1,2.4609034E-1,-7.320397E-2,2.130614E-3,5.4315555E-1,5.3400797E-1,5.7556957E-1,4.8688874E-1,-3.8378734E-2,5.937953E-1,1.9383416E-1,3.7645048E-1,-1.1893303E-1,6.407476E-1,9.309965E-1,-1.1734259E-1,-0E0,1.177E-3,-5.522829E-2,8.24445E-1,3.225465E-2,6.675559E-2,-5.1489063E-2,-7.857014E-2,3.31E1,3.7013936E-1,6.259568E-2,-1.1007397E-2,-1.661752E-1,-1.1754699E-2,-1.1809141E-1,4.050966E-2,1.3129558E-1,8.3831125E-1,-2.2040855E-3,-0E0,5.5878654E-2,1.014637E-1,1.3959418E-1,2.92E1,2.26864E0,7.626308E-2,1.12709135E-1,7.6394774E-2,1.5269242E-1,6.724829E-2,-6.718911E-2,-1.1560926E-1,-5.9123393E-3,-3.5725717E-2,-7.289402E-2,-5.370837E-2,-1.1203802E-1,-1.2497389E-1,-1.05969846E-1,-1.1573153E-1,1.3732063E-2,-6.910517E-2,-1.2713224E-2,-1.1885154E-1,-4.647287E-2,-1.1831923E-1,-5.1828794E-2,1.1439748E-2,-1.01098284E-1,-2.4046844E-2,5.792937E-2,-1.0357009E-1,4.1620646E-2,-5.689292E-2,8.8091185E-3,-1.0537155E-1,2.81775E-2,3.799951E-2,7.449756E-2,-1.6753238E-1,-5.4694515E-2,-1.5668692E-2,-1.6553389E-1,6.240981E-2,3.4485664E-3,-1.2936783E-1,-7.58901E-2,-1.7844189E-2,-1.2334773E-1,-1.0355965E-1,-1.1900943E-2,-7.604914E-2,4.473253E-2,-6.577992E-2,-1.3080573E-1,-9.092833E-3,-1.1853932E-1,6.1568618E-2,-7.742029E-3,-1.1864436E-1,-4.580454E-2,-9.792581E-3,6.259528E-2,-9.141029E-2,-0E0,6.295603E-3,-7.1674384E-2,-1.0399245E-1,-1.314146E-1,-1.15797475E-1,-6.853298E-4,-1.1734845E-1,-4.7715656E-2,-7.209141E-3,6.0062878E-2,-1.220806E-1,-1.4719097E-3,-2.2581816E-2,6.111599E-2,3.445302E-2,7.469773E-2],"split_indices":[19,128,40,95,140,145,33,40,0,0,145,17,137,144,95,0,140,145,40,0,33,96,33,145,96,2,144,0,0,0,140,19,33,145,144,59,40,59,128,0,140,145,145,145,23,0,145,140,0,96,145,50,128,128,144,128,30,40,0,59,137,30,0,95,140,145,128,135,28,0,128,0,140,136,40,21,0,2,77,133,144,133,144,128,7,95,145,133,128,144,0,95,133,136,135,133,144,133,0,0,0,0,21,30,0,50,136,0,135,23,23,133,145,23,0,140,0,136,145,128,0,128,128,0,0,59,0,140,140,40,0,0,50,136,0,33,0,50,145,0,0,140,0,0,50,0,0,144,0,140,0,133,0,0,144,145,145,137,0,144,137,140,0,133,136,0,0,3,0,140,0,0,0,0,21,144,0,0,0,0,0,0,140,135,0,0,0,140,135,21,23,0,140,0,140,0,0,0,0,0,0,0,0,0,0,0,0,0,0,0,0,0,0,0,0,0,0,0,0,0,0,0,0,0,0,0,0,0,0,0,0,0,0,0,0,0,0,0,0,0,0,0,0,0,0,0,0,0,0,0,0,0,0,0,0,0,0,0,0,0,0,0,0,0,0,0,0],"split_type":[0,0,0,0,0,0,0,0,0,0,0,0,0,0,0,0,0,0,0,0,0,0,0,0,0,0,0,0,0,0,0,0,0,0,0,0,0,0,0,0,0,0,0,0,0,0,0,0,0,0,0,0,0,0,0,0,0,0,0,0,0,0,0,0,0,0,0,0,0,0,0,0,0,0,0,0,0,0,0,0,0,0,0,0,0,0,0,0,0,0,0,0,0,0,0,0,0,0,0,0,0,0,0,0,0,0,0,0,0,0,0,0,0,0,0,0,0,0,0,0,0,0,0,0,0,0,0,0,0,0,0,0,0,0,0,0,0,0,0,0,0,0,0,0,0,0,0,0,0,0,0,0,0,0,0,0,0,0,0,0,0,0,0,0,0,0,0,0,0,0,0,0,0,0,0,0,0,0,0,0,0,0,0,0,0,0,0,0,0,0,0,0,0,0,0,0,0,0,0,0,0,0,0,0,0,0,0,0,0,0,0,0,0,0,0,0,0,0,0,0,0,0,0,0,0,0,0,0,0,0,0,0,0,0,0,0,0,0,0,0,0,0,0,0,0,0,0,0,0,0,0,0,0,0,0,0,0,0,0,0,0,0,0,0,0,0,0],"sum_hessian":[1.3493916E5,4.9735477E4,8.520367E4,2.5826277E3,4.715285E4,1.3315899E4,7.188777E4,2.56064E3,2.19877E1,1.5408749E3,4.5611977E4,9.562541E3,3.753358E3,1.5617377E3,7.032604E4,2.0875034E3,4.731365E2,8.1791343E3,3.743284E4,2.6975787E2,9.292783E3,2.6015916E3,1.1517662E3,5.878709E2,9.738667E2,6.995614E4,3.698982E2,3.1255108E1,4.4188138E2,2.5178967E2,7.927344E3,3.115285E4,6.2799917E3,2.505805E3,6.7869785E3,2.3941438E3,2.0744778E2,2.5261687E2,8.991494E2,3.305909E2,2.5728003E2,9.06494E2,6.737268E1,3.682394E3,6.627374E4,3.3658268E1,3.3623993E2,6.580481E3,1.3468635E3,2.832697E4,2.8258777E3,4.4202793E3,1.8597128E3,2.0529607E3,4.5284433E2,4.9619287E3,1.8250499E3,2.3794934E3,1.4650415E1,1.2503094E2,8.2416855E1,2.3913354E2,1.3483313E1,5.917607E2,3.0738873E2,1.4198705E2,1.1529299E2,1.0757798E2,7.989161E2,1.8234585E1,4.9138092E1,1.8461646E3,1.8362296E3,1.3519891E3,6.4921758E4,3.2126663E1,3.0411328E2,2.7023635E3,3.8781174E3,2.7970615E4,3.563565E2,5.914509E2,2.2344268E3,4.3524243E3,6.785503E1,1.3863506E3,4.733622E2,1.0681198E3,9.848409E2,4.393664E2,1.3477961E1,4.917753E3,4.417586E1,1.7058511E3,1.19198814E2,2.2696204E3,1.09873E2,1.1253799E2,1.249295E1,2.1888252E1,6.05286E1,2.1239856E2,2.6734997E1,4.78586E2,1.1317471E2,2.6664893E2,4.0739803E1,8.99451E1,5.2041943E1,8.784408E1,2.7448912E1,5.2561047E1,5.5016933E1,7.8456903E2,1.4347022E1,3.0045938E1,1.9092155E1,3.6194556E2,1.474284E3,1.3361677E3,1.5821435E1,6.4895062E4,2.669588E1,1.59738E1,1.6152864E1,5.7783905E2,2.1245247E3,3.150188E3,7.279293E2,2.7945197E4,2.5416985E1,3.6768177E1,3.1958835E2,4.870657E2,1.0438519E2,1.22739784E2,2.111687E3,2.7402273E3,1.6121967E3,4.7301613E1,2.0553413E1,1.1580889E3,2.2826166E2,2.2803473E1,4.5055875E2,1.0465952E3,2.1524515E1,9.1751746E2,6.732342E1,5.8409348E1,3.8095703E2,4.902585E3,1.5167804E1,1.1289269E1,3.2886593E1,1.4569267E2,1.5601584E3,9.689847E1,2.230035E1,2.1673535E3,1.0226672E2,4.95238E1,6.0349197E1,5.0420845E1,6.211714E1,1.54728775E1,1.126212E1,4.550468E2,2.3539158E1,2.4534157E2,2.1307346E1,2.4717865E1,1.6021938E1,1.1513854E1,4.0528088E1,2.612057E1,6.172351E1,1.6120182E1,1.132873E1,2.014512E1,3.2415928E1,1.7765041E1,3.7251892E1,7.7333575E2,1.1233285E1,1.3485226E1,1.6560713E1,1.8965839E2,1.7228719E2,1.382574E3,9.171003E1,6.2222003E2,7.1394763E2,4.080374E4,2.4091322E4,1.29646225E1,1.3731259E1,1.6628017E2,4.115589E2,2.7413894E3,4.087986E2,1.9843805E2,5.294913E2,2.7399053E4,5.4614453E2,3.0592776E2,1.3660571E1,2.1405421E2,2.730115E2,8.466591E1,3.807388E1,2.714877E3,2.5350319E1,1.3142323E2,1.4807734E3,1.3098085E2,1.027108E3,4.3530573E2,1.5253007E1,1.9376617E2,7.237513E2,4.420782E1,1.4201526E1,1.515602E2,4.751025E3,1.409885E1,1.878774E1,1.019193E2,4.3773373E1,1.1327649E3,4.2739346E2,6.70616E1,2.9836866E1,1.3280761E1,2.1540728E3,6.7947716E1,3.431901E1,1.7037664E1,3.2486137E1,1.7154097E1,3.3266747E1,5.0206455E1,1.1910684E1,4.2250076E2,3.254607E1,2.2759259E2,1.7748972E1,1.2549115E1,2.7978971E1,1.200445E1,1.4116118E1,2.4133675E1,1.3118218E1,6.076428E2,1.6569296E2,4.0571953E1,1.4908644E2,1.3336992E2,3.891726E1,8.5388885E1,1.2971852E3,5.100016E1,4.070987E1,7.296423E1,6.409834E2,2.356366E2,2.3855686E4],"tree_param":{"num_deleted":"0","num_feature":"147","num_nodes":"267","size_leaf_vector":"1"}},{"base_weights":[6.498986E-2,-1.5838411E0,1.1379708E0,7.609877E-2,-1.7744036E0,-1.1418748E0,1.1892E0,-1.8971127E0,-8.3055013E-1,7.925047E-1,-1.4132639E0,-3.61624E-1,1.2083987E0,-3.9383432E-1,-1.9137586E0,1.0055135E0,-1.0069339E0,6.9353454E-2,-1.2274863E-1,-1.6509901E0,-7.066566E-1,-1.1136899E0,7.7080333E-1,3.4523016E-1,1.2255954E0,8.366259E-1,-1.0952193E0,-1.6885744E0,-1.9325483E0,1.117666E0,-1.1193463E-1,-6.597185E-1,-1.62575E0,-1.7552232E0,5.3768635E-2,-3.0519467E-2,-1.2383208E0,5.3387916E-1,-1.6449019E0,-1.2893115E-1,8.831973E-1,4.787869E-1,-1.4656807E0,9.507885E-1,1.2357258E0,6.941819E-2,-1.1488899E-1,-1.6139325E0,1.9357754E-1,-1.9047748E0,-1.3578534E0,-1.9046425E0,-1.17474966E-1,7.502437E-2,5.872541E-1,-1.6075126E0,-3.82172E-1,-1.7799592E0,-1.0936018E0,-1.8268158E0,-8.9149314E-1,-6.701667E-1,4.233923E-2,-1.5633032E0,-8.5695636E-1,1.0165371E0,-1.2496641E-1,-1.1948673E0,-1.8842311E0,-0E0,9.770187E-1,-5.3876793E-1,6.809442E-1,-1.4233574E-1,2.386559E-2,1.0691284E0,3.0074626E-1,1.2361463E0,-5.2930177E-3,-4.2771074E-1,-1.7621835E0,3.806484E-2,-7.174365E-2,-1.2799817E0,-1.1664081E-1,-1.1527244E0,-1.2180329E-1,-1.9282781E0,-1.371287E0,-1.761522E-2,7.3844755E-1,-1.0314894E0,-1.19826965E-1,-1.0285763E0,1.0594078E-1,-1.445005E0,-1.2035931E-1,-2.3858514E-2,-1.5552807E0,-1.17627636E-1,-1.6683497E0,-1.09975696E-1,1.4094585E-1,-1.1668026E-1,-3.6430338E-1,-1.1390646E-1,-9.514546E-1,-1.928399E-1,-1.6778806E0,6.719136E-2,1.5645988E-2,-1.3354952E0,9.509408E-3,-1.2264109E-1,-1.1449898E0,7.108933E-2,-6.986001E-2,-0E0,1.0141032E0,5.195967E-1,-1.411026E0,7.55109E-1,-7.29757E-1,4.464721E-2,-6.17446E-2,-9.348928E-3,1.0831298E0,7.408989E-2,-1.3526501E-1,1.2365576E0,4.6072323E-3,4.6708416E-3,-6.768943E-2,-5.3378087E-2,-1.832568E0,7.235848E-2,-1.18321426E-1,-9.7556543E-1,-1.2194883E-1,-1.691102E0,-1.933158E0,-1.2162128E-1,-1.1158968E0,1.2881856E-2,5.4908924E-2,-5.847243E-1,-1.19017236E-1,-1.3409711E0,6.406466E-2,-2.9774022E-1,9.9471897E-1,-1.8944178E0,-8.029238E-1,8.084292E-1,-1.2217546E-1,-9.863276E-1,-1.21251054E-1,-1.7104855E0,-2.1889074E-2,-4.4976924E-2,4.0220946E-2,-9.62838E-2,-1.12087466E-1,-0E0,-1.170381E-1,-5.9951592E-2,1.7258981E-1,-5.4005217E-2,-1.2769663E-1,-8.540819E-1,-1.6233944E0,-1.0684077E-1,-4.1314483E-1,6.332399E-2,1.9488491E-2,6.3395105E-2,-1.1529837E-1,-1.3107473E-1,-1.1406631E0,9.219926E-1,3.4951016E-1,-4.015384E-2,-1.1634942E-1,1.7787549E-1,1.1029245E0,-7.917411E-1,4.5515004E-1,1.2368542E0,-0E0,-5.9011657E-2,6.2592454E-2,-1.16153315E-1,-6.736795E-2,7.33946E-2,-6.502908E-2,-2.7765825E-2,-1.19043484E-1,-5.4201085E-2,-1.16413906E-1,-7.6553866E-2,-1.6671538E-2,-1.2536575E-1,-1.7497472E-2,-5.829428E-2,-1.1622371E-1,-3.4125012E-3,-6.467249E-2,6.1620742E-2,-0E0,-4.761203E-2,-1.1751967E-1,-5.756258E-4,-1.0989177E-1,7.20778E-2,-9.51631E-3,-6.925486E-2,3.7098132E-2,-1.1973857E-1,-9.5600106E-2,4.6181227E-3,-6.046127E-2,4.9647443E-2,-6.376615E-2,-8.8711284E-2,-1.1220934E-2,-6.898703E-2,-1.34634E-1,-5.356576E-2,-0E0,5.0722666E-2,-6.1255243E-2,-5.202574E-2,-1.2506396E-1,-0E0,6.075423E-2,-4.6639632E-2,4.472788E-2,3.3878524E-2,-9.803289E-2,-4.232223E-2,4.6019588E-2,6.857782E-2,4.9835607E-2,-1.309681E-2,-8.7045565E-2,-5.320844E-2,4.0786196E-2,7.1285546E-2,7.4814394E-2],"categories":[],"categories_nodes":[],"categories_segments":[],"categories_sizes":[],"default_left":[0,0,1,0,1,0,0,0,0,1,1,0,0,0,0,0,0,0,0,0,0,0,0,0,0,1,1,0,0,0,0,0,1,0,0,1,0,1,0,0,1,0,1,1,0,0,0,0,0,0,0,0,0,0,0,1,0,0,0,0,0,1,0,0,0,0,0,1,0,0,0,0,0,0,0,0,0,0,0,1,0,0,0,1,0,1,0,0,0,0,0,1,0,0,0,0,0,0,0,0,0,0,0,0,0,0,0,0,0,0,0,0,0,0,0,0,0,0,0,0,0,1,1,0,0,0,0,0,1,1,0,0,0,0,1,0,0,0,0,1,0,0,1,0,0,0,0,0,0,1,0,0,0,0,0,1,0,0,0,0,0,0,0,0,0,0,0,0,0,0,1,0,0,0,0,0,0,0,0,0,0,1,0,0,1,0,0,1,0,0,0,0,0,0,0,0,0,0,0,0,0,0,0,0,0,0,0,0,0,0,0,0,0,0,0,0,0,0,0,0,0,0,0,0,0,0,0,0,0,0,0,0,0,0,0,0,0,0,0,0,0,0,0,0,0,0,0,0,0],"id":6,"left_children":[1,3,5,-1,7,9,11,13,15,17,19,21,23,25,27,29,31,-1,-1,33,35,37,39,41,43,45,47,49,51,53,-1,55,57,59,-1,61,63,65,67,-1,69,71,73,75,77,-1,-1,79,81,83,85,87,-1,-1,89,91,93,95,97,99,101,103,-1,105,107,109,-1,111,113,115,117,119,121,-1,123,125,127,129,-1,131,133,-1,-1,135,-1,137,-1,139,141,-1,143,145,-1,147,149,151,-1,153,155,-1,157,-1,159,-1,161,-1,163,165,167,-1,-1,169,-1,-1,171,-1,-1,-1,173,175,177,179,181,-1,-1,-1,183,-1,185,187,189,-1,-1,-1,191,-1,-1,193,-1,195,197,-1,199,-1,-1,201,-1,203,-1,205,207,209,211,213,-1,215,-1,217,-1,-1,-1,-1,219,-1,-1,-1,221,-1,-1,223,225,-1,227,-1,-1,-1,229,-1,231,233,235,237,-1,239,241,243,245,247,-1,-1,-1,-1,-1,-1,-1,-1,-1,-1,-1,-1,-1,-1,-1,-1,-1,-1,-1,-1,-1,-1,-1,-1,-1,-1,-1,-1,-1,-1,-1,-1,-1,-1,-1,-1,-1,-1,-1,-1,-1,-1,-1,-1,-1,-1,-1,-1,-1,-1,-1,-1,-1,-1,-1,-1,-1,-1,-1,-1,-1],"loss_changes":[2.3278092E5,2.8152023E4,9.30982E3,0E0,5.625672E3,9.205571E2,2.3226562E3,1.0723438E3,1.8122788E3,2.1757185E2,2.5371484E2,8.118059E2,1.1401797E3,4.0846448E2,1.7301562E2,1.564111E2,1.0928442E3,0E0,0E0,3.0617017E2,1.375873E2,5.0385834E2,1.2227879E2,3.6273962E2,2.0610938E2,1.4748439E2,2.0444992E2,2.2868555E2,1.3296875E1,2.8829529E1,0E0,8.5733167E2,1.4500146E2,6.3114746E1,0E0,8.118635E1,2.2282013E1,1.737513E2,4.0923218E1,0E0,3.1161377E1,2.891378E2,1.4152339E2,2.0454736E2,4.2585938E1,0E0,0E0,3.403424E1,5.1343693E1,3.4612793E1,1.7181421E2,1.946289E2,0E0,0E0,1.3486725E1,1.5753516E2,8.009385E2,9.76582E1,2.0214163E2,1.3492676E1,8.676064E1,3.2168312E1,0E0,1.7595337E1,5.248149E1,6.4213104E0,0E0,3.1392334E1,2.571222E1,4.7434464E1,1.2941254E1,2.1530013E2,1.2285773E2,0E0,2.8320438E1,4.0661133E1,1.7108186E2,3.46875E1,0E0,1.0878867E1,6.6567383E0,0E0,0E0,1.7610542E2,0E0,1.4874573E2,0E0,1.0644531E1,1.0680762E2,0E0,5.534317E0,1.210495E2,0E0,7.1435754E2,5.186401E2,1.5810327E2,0E0,2.1354051E2,6.971924E1,0E0,2.1526245E1,0E0,1.8914536E1,0E0,2.089907E1,0E0,3.6974728E1,1.8514732E1,9.752312E0,0E0,0E0,1.4850403E1,0E0,0E0,1.9310608E1,0E0,0E0,0E0,5.8796997E0,3.6824432E1,2.0155975E1,7.3204285E1,